#ifndef ABCDNetWeights_h
#define ABCDNetWeights_h

namespace ABCDNet
{
    float bias_0[64] = {
        -0.2568431f, 0.2822972f,-0.1219140f,-0.3797936f, 0.0418422f, 0.0837210f, 0.2276235f, 0.3682631f, 0.1797701f, 0.2405021f, 0.3638931f,-0.3890176f,-0.1995691f, 0.2777775f,-0.0251316f,-0.2941756f,-0.5599717f,-0.2668845f,-0.6432884f, 0.3159407f, 0.4489472f,-0.1475829f, 0.0792291f, 0.2624331f,-0.1985088f,-0.3117258f,-0.1003905f,-0.1057574f, 0.3820545f, 0.3851561f,-0.5496877f,-0.2489468f, 0.4727582f, 0.4922638f,-0.2215871f, 0.4368232f, 0.1102248f,-0.0902113f, 0.4011845f,-0.3240023f, 0.2409674f, 0.3667650f,-0.0141817f, 0.4629051f,-0.2800378f,-0.3633783f, 0.5352502f, 0.4486377f,-0.0147298f, 0.3337223f, 0.2979714f,-0.4697548f, 0.4228835f, 0.0495187f, 0.0795273f, 0.1438944f, 0.0334103f,-0.2328377f, 0.5739976f,-0.2641889f, 0.2277419f, 0.2099777f, 0.0629106f,-0.0018894f
    };
    float wgtT_0[13][64] = {
        { -0.2064988f, 0.1455569f,-0.0400753f,-0.2158025f, 0.1554895f,-0.0433451f, 0.1401082f, 0.0745814f, 0.2158596f,-0.0766374f, 0.1535392f,-0.0927283f, 0.0536695f, 0.0677312f, 0.0076408f, 0.1196387f,-0.1178167f,-0.1566959f, 0.1161407f, 0.0016481f, 0.1129989f, 0.0926716f, 0.0882516f, 0.1713387f, 0.1773224f,-0.0507191f,-0.1407829f, 0.0903150f,-0.2179558f, 0.0735649f, 0.1041297f, 0.0231510f,-0.1093952f,-0.1134038f,-0.1219657f,-0.2085325f,-0.0938118f,-0.1515939f,-0.2201828f, 0.0612208f,-0.1683868f,-0.0994192f, 0.1579848f,-0.1497288f,-0.0359164f, 0.1519225f,-0.1123164f,-0.0998506f,-0.1918709f, 0.1004026f,-0.0076030f,-0.1036217f,-0.0544746f,-0.0196322f,-0.1599766f,-0.1861973f,-0.0451866f,-0.0276852f, 0.1170446f,-0.2274665f, 0.0743554f,-0.0134637f,-0.1566263f,-0.0351487f },
        { -0.0472033f,-0.1012601f,-0.0358181f,-0.0280412f, 0.1025656f, 0.1330261f,-0.2018023f,-0.2049467f, 0.2461640f, 0.0066614f, 0.0255163f, 0.1053370f, 0.0630441f,-0.1259506f, 0.2507358f, 0.0355584f,-0.0063551f, 0.0672472f,-0.2596878f,-0.0860678f,-0.1950583f, 0.1403290f, 0.3003567f,-0.0203171f,-0.0634423f, 0.1505345f, 0.0993622f, 0.0294130f,-0.0033218f,-0.2111990f, 0.2404572f, 0.0738070f,-0.0207933f, 0.1974251f,-0.1694832f,-0.1583132f, 0.1759247f, 0.0952736f, 0.1898330f, 0.0875348f,-0.2363943f, 0.2491931f, 0.2920242f, 0.1399751f, 0.0789616f, 0.1595448f,-0.1060349f, 0.0127440f, 0.0206138f,-0.1830289f, 0.0350936f, 0.0671399f,-0.0613634f,-0.1380957f,-0.0105660f,-0.2108056f, 0.0318057f, 0.1163182f,-0.0648067f,-0.1363857f, 0.1529729f, 0.0523748f,-0.0087414f,-0.0262349f },
        { -0.2278133f, 0.0573272f, 0.0904216f,-0.2771992f, 0.1438118f,-0.2133628f, 0.0175727f,-0.1319969f, 0.0999148f, 0.0379469f, 0.0537050f,-0.3444463f, 0.1680568f,-0.2621853f,-0.1696520f,-0.0816365f, 0.1248953f, 0.1044623f, 0.2029425f,-0.2399986f,-0.1439238f,-0.0072621f, 0.0226670f, 0.1049765f,-0.2685393f,-0.0923474f, 0.3191309f,-0.2775371f,-0.1354433f, 0.2388944f, 0.1006990f, 0.1014565f, 0.2264847f,-0.1587187f,-0.1844496f,-0.0765431f,-0.2147853f, 0.0578000f, 0.2815956f,-0.1845859f, 0.2097750f,-0.1290608f, 0.0224932f,-0.2559260f,-0.1455639f, 0.0785328f,-0.1927855f, 0.1161049f,-0.0225147f, 0.0419370f, 0.0863390f, 0.1205075f, 0.1225280f, 0.0511653f,-0.1613579f, 0.2417898f,-0.2038062f,-0.3357955f,-0.2444919f, 0.2905115f, 0.1517712f,-0.0181436f,-0.0140759f,-0.0198222f },
        { -0.1544349f,-0.1099643f,-0.3008934f, 0.0074796f, 0.0290996f,-0.2944998f, 0.2536887f, 0.2553969f,-0.0624386f,-1.0990182f,-0.2371172f,-0.2470825f, 0.0538930f, 0.3752859f,-0.2439351f,-0.2958914f,-0.1817610f,-0.3056629f,-0.2187027f, 0.2804292f, 0.1114308f,-0.1949081f,-0.2677821f, 0.3462123f, 0.0965327f,-0.1471918f, 0.0286888f,-0.2791961f,-0.1118286f,-0.1788715f,-0.2914062f,-0.4310308f, 0.1523918f, 0.0745646f,-0.1599998f, 0.1058328f, 0.2710777f,-0.0784886f, 0.2739448f, 0.0021407f, 0.3478991f, 0.0133405f,-0.4611836f, 0.0881087f,-0.3349767f,-0.3873388f, 0.2417896f,-0.1411197f, 0.1933731f,-0.1263970f, 0.1637497f, 0.2953337f,-0.3446957f,-0.1968047f, 0.5196999f, 0.0515769f,-0.1129608f,-0.0326990f, 0.0811405f, 0.3149597f,-0.0651681f, 0.4447755f,-0.1065534f, 0.2140201f },
        { -0.1641379f, 0.0110396f, 0.1001754f, 0.1205297f,-0.1769866f,-0.0145368f,-0.2074655f,-0.2480446f,-0.2432133f, 0.0805294f,-0.1121467f, 0.2618690f, 0.2239665f, 0.1489648f,-0.0057498f, 0.1635877f, 0.1187734f, 0.2820105f, 0.2376165f,-0.1643931f, 0.0250559f, 0.0311338f,-0.1183264f, 0.0656905f, 0.0279948f, 0.2586539f, 0.1967829f, 0.0172804f,-0.0125841f, 0.0027768f, 0.0211463f, 0.0500839f,-0.0496928f, 0.1879621f, 0.1019467f, 0.0156583f,-0.1931998f,-0.0823954f, 0.2303669f, 0.0295045f, 0.0415205f, 0.0334513f,-0.0420845f,-0.2303526f,-0.0685705f, 0.0937341f, 0.0867113f,-0.2439053f,-0.0844326f,-0.1831974f,-0.1134779f, 0.0928529f,-0.1579339f, 0.1165784f, 0.1965500f,-0.1669358f, 0.0566365f, 0.2109293f,-0.1892361f,-0.1188653f,-0.2116218f,-0.0371986f,-0.0867161f,-0.1110715f },
        {  0.2190425f,-0.1746224f,-0.0459237f,-0.0654862f,-0.0571082f,-0.0191640f,-0.0342673f,-0.0899844f,-0.2356921f, 0.0360592f, 0.1997630f, 0.0809560f, 0.1781926f, 0.1300635f,-0.0845357f,-0.1629365f, 0.2240440f, 0.1033180f,-0.1442748f, 0.1781329f,-0.1387131f,-0.1163521f,-0.2322778f,-0.0937711f, 0.1735585f, 0.0474529f, 0.2323674f,-0.1686689f,-0.0341818f,-0.1333768f, 0.1543352f, 0.0277940f, 0.1089771f,-0.2098856f,-0.1387271f, 0.0448368f, 0.0682960f,-0.2516702f, 0.1977146f, 0.1894513f, 0.0201517f,-0.0782231f,-0.2355521f, 0.1140230f, 0.3001896f,-0.0036035f,-0.0592985f,-0.0014804f,-0.0620155f,-0.0919746f,-0.0133805f, 0.1675484f, 0.3921459f,-0.3328592f, 0.1121703f,-0.0453578f, 0.1908699f, 0.2004076f,-0.1663313f,-0.1917385f,-0.2324278f,-0.0075237f,-0.2078911f, 0.1158130f },
        { -0.0820791f, 0.0826552f, 0.1602926f, 0.2362460f,-0.0223315f, 0.0138652f,-0.3874854f, 0.1430057f,-0.0964388f, 0.0234731f, 0.0602194f, 0.0149827f, 0.1833837f, 0.3273179f, 0.3397299f, 0.1828735f,-0.2792026f, 0.4312353f,-0.3344455f, 0.1844960f,-0.1319781f, 0.1649210f,-0.3354751f, 0.0168385f,-0.0363787f, 0.0356012f, 0.1046453f, 0.0775529f, 0.2877584f,-0.2273932f,-0.0101249f,-0.1650508f, 0.1034832f,-0.1148005f,-0.1895697f, 0.0079255f, 0.2198178f,-0.1430639f,-0.1502713f, 0.2462527f, 0.0010138f,-0.0300158f,-0.0495167f, 0.2810658f,-0.0947307f, 0.0602820f, 0.0792357f,-0.0501274f, 0.0708525f,-0.2574056f,-0.3379005f,-0.1839546f, 0.1627330f, 0.3038593f, 0.2261325f, 0.0079059f,-0.1616151f, 0.1122869f, 0.1033214f,-0.0551452f, 0.2649844f,-0.0239611f, 0.2274057f, 0.0637682f },
        { -0.1785120f, 0.1152568f,-0.3747736f, 0.0783264f,-0.2856555f,-0.9339656f, 0.4312723f, 0.2909304f,-0.1921447f,-0.2285874f,-0.2292339f,-0.3379490f,-0.2708547f,-0.1021748f,-0.0704640f,-0.4118456f,-0.4198452f,-0.3840831f,-0.3759005f,-0.0552570f,-0.0492805f, 0.0240436f, 0.0279509f, 0.2989576f,-0.0199418f, 0.0225389f,-0.1038599f, 0.0740451f, 0.4901648f, 0.2071946f,-0.1108442f,-0.3264665f, 0.1380171f, 0.5448434f, 0.0942439f, 0.3239041f, 0.4518630f,-0.0048592f, 0.3700831f,-0.3705734f, 0.3360573f,-0.4020893f,-0.2991216f,-0.1802671f,-0.2255727f,-0.2578726f, 0.0156976f, 0.1077475f, 0.6937744f,-0.1491454f, 0.2759697f, 0.3989452f,-0.0712241f, 0.2780207f, 0.4592805f, 0.3578648f,-0.4478817f,-0.1084868f, 0.0375702f, 0.4269783f, 0.1452064f,-1.1440650f,-0.0240520f, 0.3628585f },
        {  0.1615171f,-0.1736143f,-0.0005127f,-0.1941720f, 0.0211656f, 0.2143383f, 0.1544227f,-0.0133353f,-0.0834585f, 0.0556545f,-0.0363526f, 0.1993233f,-0.2395738f,-0.2123459f, 0.0345369f, 0.1456645f,-0.1056934f,-0.2552207f,-0.0187365f, 0.0212609f,-0.1292650f, 0.1239628f,-0.0036403f,-0.1149639f, 0.0431522f, 0.0249232f,-0.1653856f,-0.0363330f, 0.2170313f, 0.1950515f,-0.1780121f, 0.2146737f,-0.0304091f,-0.1303462f,-0.0274922f, 0.0596422f, 0.0835692f, 0.2015524f,-0.1101124f, 0.0923562f,-0.0892447f, 0.1309477f, 0.0543592f, 0.2388967f, 0.1249011f, 0.2588538f,-0.2414396f, 0.1014268f,-0.0126656f, 0.0080186f,-0.1139039f, 0.0575476f, 0.0648161f,-0.0868132f,-0.1769522f, 0.1821433f,-0.0406047f, 0.1424516f,-0.1198556f, 0.2400614f, 0.0152589f, 0.0319467f, 0.1754451f, 0.0191794f },
        { -0.0543965f,-0.1877052f, 0.1054214f, 0.2785301f, 0.1434306f, 0.0713482f,-0.2155329f, 0.0608882f,-0.0418711f,-0.0383576f, 0.1565021f, 0.0788734f,-0.2716412f,-0.1675469f,-0.1894299f, 0.1893180f, 0.0826278f, 0.0938557f,-0.2562310f, 0.1874982f,-0.0361748f, 0.0599547f,-0.1117926f, 0.0783038f, 0.2166248f, 0.0270529f,-0.1080242f,-0.0662203f,-0.2540688f, 0.0827452f, 0.0640227f,-0.0612291f, 0.0786019f, 0.0830991f, 0.0839534f,-0.0128009f,-0.1052422f,-0.2531168f, 0.1760606f, 0.1338746f, 0.1725178f,-0.0268261f,-0.0676707f,-0.2773983f, 0.2125506f,-0.0240243f, 0.0348314f, 0.1258012f, 0.2584899f, 0.0565001f,-0.0153102f, 0.0322797f, 0.0866131f, 0.0951313f,-0.0930865f, 0.2504686f, 0.0679049f,-0.2310490f,-0.2065711f, 0.0281645f,-0.2768523f,-0.0401442f,-0.1975222f, 0.2242179f },
        {  0.2114984f, 0.1163502f, 0.1990637f, 0.2129391f, 0.0769899f,-0.0757381f,-0.1985152f, 0.0955193f, 0.2243862f,-0.0079632f,-0.2640006f, 0.1305896f,-0.1345037f,-0.0094967f, 0.0493070f, 0.1154925f,-0.0427656f,-0.2128796f,-0.0052468f,-0.0902928f,-0.1402407f,-0.3228630f,-0.2250992f,-0.0279276f, 0.0612382f,-0.2298958f,-0.2232120f, 0.0064758f,-0.2291865f, 0.0183417f, 0.1375501f,-0.0380649f,-0.1850532f, 0.0658465f, 0.1186519f,-0.1832034f,-0.0558522f, 0.0447061f,-0.1744734f, 0.0343620f,-0.1658376f,-0.1025078f, 0.0737113f, 0.1376681f,-0.1810609f,-0.1787883f, 0.2783155f,-0.1703095f, 0.3125691f, 0.1002824f,-0.0788216f,-0.1197816f,-0.0372637f,-0.1196630f, 0.1272455f,-0.0886886f,-0.1399711f,-0.2692584f, 0.1902748f,-0.3101672f, 0.0623246f,-0.0199473f,-0.1523768f,-0.2107415f },
        {  0.0956773f, 0.0736608f, 0.0005155f, 0.4099881f,-0.5905471f,-0.3697056f,-0.0290739f,-0.0999430f, 0.0308911f, 0.3630085f,-0.1160029f,-0.1453293f,-0.0868025f,-0.3108535f, 0.1318084f, 0.2740053f, 0.1461610f,-0.0955566f,-0.0591819f,-0.5127362f, 0.0410108f,-0.0488915f,-0.5741721f,-0.1593134f,-0.1356967f, 0.4479488f, 0.1383957f, 0.1999579f, 0.1314119f,-0.2358078f,-0.0866836f,-0.0292194f, 0.1023015f,-0.0037849f, 0.4112262f, 0.1009293f, 0.0010496f, 0.2732919f,-0.0151065f,-0.0492603f,-0.2373747f,-1.2291044f,-0.1786142f,-0.1463986f,-0.1663242f, 0.2196193f,-0.2375270f,-0.4925421f, 0.2160395f,-0.3175267f, 0.1604811f, 0.4024720f,-0.1201756f, 0.5174645f, 0.4429816f,-0.0987836f,-0.1786036f, 0.1243865f,-0.2473261f, 0.1198913f,-0.3138834f, 0.3511094f,-0.0590745f,-0.0515854f },
        {  0.2469869f, 0.1883953f, 0.3001614f, 0.2878387f,-0.0981910f, 0.0995317f, 0.0997302f,-0.0797352f,-0.0737957f,-0.0200440f,-0.1019101f, 0.0435802f, 0.3070941f, 0.3138962f, 0.2504428f, 0.0101247f,-0.0461875f, 0.1505362f,-0.0564366f, 0.1743347f, 0.0728366f, 0.2049438f, 0.5233892f,-0.0088415f, 0.2071756f, 0.2866914f,-0.1879928f, 0.1546841f, 0.2180700f,-0.1985982f, 0.0347817f,-0.0417989f,-0.1165783f,-0.2437124f,-0.0325321f, 0.0674333f, 0.0626444f,-0.2467156f, 0.1456148f, 0.2485258f,-0.1620158f,-0.0249483f, 0.6438355f,-0.1112111f, 0.1347799f,-0.0410533f, 0.1186574f,-0.1667924f,-0.0234425f, 0.2115169f,-0.1865496f, 0.2231753f,-0.1431450f, 0.3930329f, 0.0375985f,-0.2049510f,-0.1985005f,-0.2701556f, 0.3870296f, 0.1455961f,-0.2063179f, 0.0097585f, 0.3039794f,-0.0659379f },
    };
    float bias_2[64] = {
         0.3567871f, 0.1073919f, 0.0139711f,-0.3658641f, 0.2762226f, 0.4046896f, 0.2604524f, 0.0804576f,-0.2762723f, 0.1829561f,-0.3362491f, 0.0349034f,-0.2857771f,-0.0198123f,-0.0742396f,-0.2311831f, 0.3325694f, 0.3962657f, 0.3207881f,-0.1298012f,-0.1194623f, 0.3019580f, 0.0233171f,-0.2162340f, 0.1359838f, 0.3028965f,-0.4481637f,-0.2586561f, 0.1596987f, 0.4016702f, 0.4249994f,-0.2006608f,-0.1629478f, 0.2556655f,-0.2901298f, 0.2987261f,-0.1566533f,-0.3083976f, 0.1674079f,-0.0989281f, 0.3690180f,-0.0621031f,-0.0392221f, 0.2184023f,-0.3294463f, 0.1951597f, 0.0572959f, 0.5861543f, 0.3392230f,-0.0113839f, 0.1493251f, 0.0286494f,-0.2382263f, 0.3011495f, 0.0980725f, 0.2629458f,-0.2737077f,-0.3285341f,-0.1778425f, 0.0044125f, 0.2346275f,-0.2801104f, 0.2514570f,-0.2680988f
    };
    float wgtT_2[64][64] = {
        {  0.0011954f, 0.0771172f,-0.0173138f, 0.0090282f, 0.0815779f, 0.0363984f,-0.0801853f, 0.0408095f, 0.0662656f, 0.0347499f, 0.0710045f, 0.0750048f, 0.0525761f, 0.1352440f, 0.0671553f, 0.1743168f,-0.0389045f, 0.0141260f, 0.0878780f,-0.0908578f, 0.1117177f,-0.0142536f, 0.0612704f, 0.0102658f, 0.0523414f, 0.0760685f,-0.0012113f, 0.1026030f,-0.0268747f, 0.0025115f,-0.0449521f,-0.0341931f, 0.0776281f, 0.1230313f, 0.0725361f, 0.0797220f,-0.0827067f,-0.0170284f,-0.0636975f, 0.0003208f,-0.0389153f, 0.1047798f, 0.0551933f,-0.0813485f,-0.0120683f,-0.1413599f,-0.0132879f,-0.0096087f,-0.0282938f,-0.0901680f,-0.0091396f, 0.1395407f, 0.0352761f,-0.0331565f,-0.0553903f,-0.0726441f,-0.0395893f, 0.1223999f, 0.1404306f,-0.0576751f,-0.0380252f,-0.1207377f, 0.0120913f, 0.0702109f },
        {  0.1189922f,-0.0537000f,-0.0398371f,-0.1381855f, 0.0452166f,-0.0036412f, 0.0696708f, 0.1515473f, 0.0349385f, 0.1339949f,-0.0516085f, 0.0382735f,-0.0145763f,-0.0037060f,-0.1048433f, 0.1048722f, 0.1180155f,-0.0063263f, 0.0628186f, 0.0257068f,-0.1449964f, 0.0910634f, 0.0884763f, 0.0154147f, 0.0185042f,-0.0498876f,-0.0660104f,-0.0980333f, 0.0235598f, 0.1141738f,-0.0870232f, 0.0289314f,-0.0811416f, 0.0066946f,-0.1058478f,-0.0562492f, 0.0312293f,-0.0489098f,-0.0449537f,-0.0824254f, 0.0337411f,-0.0608870f,-0.0194317f, 0.0543422f,-0.0064806f,-0.0383231f, 0.0633366f, 0.0450248f,-0.1190269f, 0.0047302f, 0.1450688f, 0.1081676f,-0.0064839f,-0.0832629f, 0.0173602f, 0.0810962f, 0.0433934f, 0.0649896f,-0.1237602f, 0.0010484f, 0.0890117f,-0.0801918f,-0.0216064f,-0.0252263f },
        { -0.1308208f,-0.0041887f,-0.0937670f, 0.1151074f,-0.0396325f,-0.0032535f, 0.0137694f,-0.0390752f, 0.0394679f,-0.0226117f, 0.1137685f,-0.0425278f, 0.0520423f,-0.0861557f,-0.0221647f, 0.2105442f,-0.0326964f,-0.0961624f, 0.0452351f,-0.1191389f,-0.0650651f,-0.0383243f, 0.0114780f,-0.0674143f, 0.0250407f, 0.1581340f, 0.0522519f,-0.1289961f, 0.0576035f,-0.0708179f,-0.0861637f,-0.0511842f,-0.2387673f, 0.0466864f,-0.0209942f,-0.0825523f, 0.0590101f,-0.0233912f, 0.0860346f,-0.0333738f,-0.0991366f,-0.1451186f,-0.0313719f, 0.0515193f,-0.0365423f,-0.1445296f, 0.0733671f,-0.1086509f,-0.1040221f, 0.0349838f,-0.1088586f, 0.0185733f, 0.0222502f, 0.1206840f,-0.0517260f,-0.1334159f,-0.0444525f,-0.0697117f, 0.1020019f, 0.0004826f,-0.0463379f, 0.0597888f,-0.0409970f,-0.0909784f },
        { -0.0029227f,-0.1110423f, 0.1453866f, 0.1271940f,-0.0962472f,-0.0399043f, 0.0356724f,-0.0227918f, 0.1241096f,-0.1218005f, 0.0133966f, 0.0022860f,-0.0161359f, 0.0181093f, 0.1296744f, 0.1935547f, 0.0773609f, 0.0077766f, 0.0867672f, 0.1316527f, 0.1519097f,-0.0811020f,-0.0083721f, 0.0206356f,-0.0619166f,-0.1113399f,-0.0227668f,-0.1023978f, 0.0615773f,-0.1032392f,-0.0963474f,-0.0903467f, 0.0030144f,-0.0985677f,-0.0763936f, 0.0728146f,-0.0847764f,-0.0775076f, 0.0441137f,-0.0403124f, 0.0551352f,-0.1061614f, 0.0548882f,-0.0569735f, 0.0661321f, 0.0695381f, 0.0150544f, 0.0157945f, 0.0235737f, 0.1033561f,-0.1029274f,-0.0923944f, 0.0218147f,-0.0292230f, 0.0154769f,-0.1103738f, 0.0889962f, 0.1403739f, 0.1426119f,-0.0980030f, 0.0753273f,-0.0553873f,-0.0759842f, 0.0142257f },
        { -0.0363343f,-0.0615238f,-0.0393238f,-0.1088479f, 0.1491581f,-0.0399520f,-0.0498046f,-0.0730192f,-0.1155573f,-0.0150156f,-0.1104489f, 0.0054993f, 0.1008608f, 0.1295268f,-0.0151698f,-0.1176038f, 0.0058112f, 0.0318197f, 0.0127715f,-0.0671341f, 0.1018144f, 0.0769969f, 0.0896817f,-0.0030727f,-0.1116977f, 0.1805153f,-0.0140053f,-0.1462597f, 0.0063545f, 0.0283324f, 0.0181661f,-0.1086500f, 0.0548059f,-0.0027730f,-0.0478545f,-0.0160238f,-0.1133870f, 0.0141852f, 0.0500955f, 0.1327222f, 0.0492186f,-0.0146949f, 0.0175140f, 0.1552092f,-0.0036539f,-0.2234430f,-0.0835368f, 0.1359016f, 0.1114752f, 0.0234412f,-0.0037198f,-0.0268359f,-0.0311660f, 0.0337450f,-0.0342989f, 0.0009495f, 0.0349434f,-0.1325340f,-0.0754372f, 0.1042485f, 0.1367179f, 0.0912920f, 0.1302792f,-0.0384008f },
        { -0.2054769f,-0.1013922f, 0.0334884f, 0.0359562f, 0.0908117f,-0.1275395f,-0.1344180f, 0.0054368f,-0.0136944f, 0.1162829f,-0.0582104f, 0.2249325f,-0.0153127f,-0.1075903f,-0.0443605f, 0.0118684f, 0.0383714f,-0.5170763f,-0.0025193f, 0.0208892f, 0.1956832f,-0.0873361f,-0.0380207f, 0.0735174f,-0.0151576f, 0.2964957f, 0.0796744f, 0.1280506f, 0.1485986f,-0.0536459f,-0.0759772f, 0.0995718f,-0.1522493f,-0.1398174f, 0.1088462f, 0.0780198f, 0.0193569f,-0.1152341f,-0.0696926f, 0.0446592f,-0.1170979f,-0.1185716f, 0.0741008f, 0.0013654f, 0.0913493f,-0.4737432f,-0.0812478f, 0.1147800f,-0.0570127f, 0.0045413f,-0.0447785f,-0.0019594f,-0.1238000f, 0.0550843f, 0.0078493f,-0.0814255f, 0.0372984f, 0.2033284f,-0.0182744f, 0.0453743f,-0.2639081f,-0.0199335f, 0.0626593f, 0.1190776f },
        {  0.0717715f, 0.0925963f,-0.1328210f,-0.1648680f,-0.0039177f,-0.0549441f,-0.0446053f,-0.0025455f, 0.0764470f, 0.0384687f,-0.0050592f, 0.0830643f,-0.0886700f,-0.0124254f, 0.0379298f, 0.1260682f,-0.0409900f, 0.3412565f, 0.0248874f,-0.0253241f,-0.2359188f,-0.0406741f,-0.0892487f,-0.1516566f, 0.0486624f,-0.0510366f,-0.1777197f,-0.2287023f,-0.0775984f, 0.0095328f, 0.0482815f, 0.1097535f,-0.1181454f, 0.1251810f,-0.0393304f,-0.0427946f, 0.0595294f, 0.0041932f,-0.0222682f, 0.0322752f, 0.1539017f,-0.0064536f,-0.0662223f, 0.0274058f,-0.1786440f, 0.2066420f, 0.0730496f, 0.1641916f, 0.0589950f,-0.1022630f,-0.0234391f,-0.1367250f, 0.1294953f,-0.0360234f,-0.1052046f, 0.0483674f,-0.0003944f,-0.0870454f,-0.0314059f,-0.1708423f, 0.0367703f,-0.0045708f, 0.0215739f,-0.0853544f },
        {  0.0541124f, 0.1291348f, 0.0267268f,-0.2221627f, 0.0772165f, 0.1243768f, 0.2171156f,-0.0058314f, 0.0313599f, 0.0015044f,-0.2217524f, 0.0257942f,-0.1560906f,-0.0490097f, 0.0673499f,-0.1255538f, 0.0974997f, 0.2052424f, 0.0910572f,-0.0616933f,-0.0713360f, 0.2264858f,-0.0547994f,-0.0286297f, 0.0761527f, 0.1535492f,-0.1170545f, 0.0024819f, 0.1218864f, 0.1055393f, 0.1047741f,-0.1088701f, 0.1256453f, 0.2035869f, 0.0321288f, 0.1329491f,-0.0535449f,-0.0842939f,-0.0773303f, 0.0036734f, 0.1780161f,-0.0005904f, 0.0526238f, 0.1294386f,-0.0832964f, 0.2795483f,-0.0668919f, 0.1769946f, 0.2367363f,-0.0239524f,-0.0299164f, 0.1341948f,-0.0916016f,-0.0004265f, 0.1121107f, 0.0579649f,-0.0552430f,-0.0928442f,-0.1956667f,-0.0957758f, 0.2197889f,-0.1545512f, 0.1336298f,-0.0991774f },
        {  0.0322526f, 0.0215384f, 0.1000036f, 0.0236569f, 0.0396607f, 0.2000362f,-0.0139007f, 0.1504906f,-0.0615477f,-0.0879556f,-0.1317404f,-0.0717753f, 0.0224928f,-0.0521278f, 0.0524961f,-0.1781904f, 0.0859542f,-0.0690534f,-0.0481742f,-0.0725019f, 0.0214755f,-0.0443555f, 0.0665987f,-0.0852515f, 0.0367187f,-0.0038201f,-0.1610122f,-0.0118981f, 0.0305579f, 0.1996405f, 0.2335426f, 0.0476394f,-0.0885983f, 0.0390572f,-0.1526658f, 0.0099049f,-0.0382262f,-0.0324821f, 0.0140284f,-0.1148939f, 0.1429218f,-0.0158396f,-0.0658584f, 0.1034927f,-0.1396196f,-0.0708560f,-0.0791648f, 0.0651539f,-0.0420404f, 0.0394178f,-0.0444995f,-0.0297764f, 0.0161644f, 0.0561077f,-0.0611661f,-0.0223158f,-0.0917658f,-0.1302967f,-0.0960068f, 0.0323215f, 0.1529928f,-0.0302598f, 0.1426199f,-0.1051416f },
        {  0.3682926f, 0.3127614f,-0.1464232f,-0.5850336f, 0.3127716f, 0.3582450f, 0.0173893f, 0.6565936f, 0.0566622f, 0.0052490f,-0.6719422f, 0.3254357f,-0.4555421f, 0.1043790f,-0.1400122f,-0.9368832f, 0.2140779f, 0.1673823f, 0.1714969f, 0.0176191f,-0.5642483f, 0.3263278f,-0.0127765f,-0.4615848f, 0.0963159f, 1.0433387f,-0.4393259f,-0.6142964f, 0.0653338f, 0.4223427f, 0.4353873f,-0.1597460f,-0.2028383f, 0.5136474f,-0.3735102f, 0.1703218f,-0.1725565f,-0.1262280f, 0.2254722f,-0.3676566f, 0.2460724f, 0.0794102f,-0.4277831f, 0.4610431f,-0.4388011f, 0.4650705f, 0.0212526f, 0.4742756f, 0.3353072f, 0.0797248f, 0.0390539f,-0.1067824f, 0.0049433f, 0.2957600f,-0.0425041f, 0.3817598f,-0.2882677f,-0.5051204f,-0.3238532f, 0.0469104f, 0.6210453f,-0.1604452f, 0.0076180f,-0.4055775f },
        { -0.0570051f, 0.0464717f, 0.0413603f, 0.0709712f,-0.1011501f, 0.0041904f, 0.0353674f, 0.1509551f, 0.0515888f, 0.0959896f,-0.0932839f, 0.1189563f,-0.0909217f, 0.0937430f, 0.0880748f,-0.1983168f,-0.0278896f,-0.1499429f, 0.0215964f, 0.0120023f, 0.0935868f, 0.0963028f,-0.1388596f, 0.0550642f,-0.0290827f, 0.1693268f, 0.0168169f,-0.0032410f, 0.0862740f, 0.0157438f,-0.1103969f,-0.1073178f,-0.0765625f, 0.0588932f,-0.0783103f,-0.1212431f, 0.0783004f,-0.0607186f, 0.0283496f, 0.0556889f, 0.0002055f,-0.0843741f,-0.0583638f,-0.0969992f, 0.1043783f,-0.0805091f,-0.1008152f, 0.1791650f,-0.1091462f,-0.0252840f, 0.0591442f, 0.0568675f, 0.0119424f, 0.0266917f,-0.0805447f,-0.0970322f,-0.0954956f,-0.0276782f,-0.0288058f,-0.0120355f, 0.0191260f,-0.0808221f, 0.0851635f, 0.0911511f },
        { -0.0642881f,-0.0238866f,-0.0101125f, 0.1707849f,-0.1456866f,-0.1986475f, 0.0375583f,-0.0625416f, 0.0791674f,-0.1263510f, 0.0208158f,-0.0331700f, 0.0272416f, 0.0581041f, 0.0096845f,-0.0607600f,-0.1847301f,-0.1884726f,-0.0917594f,-0.0842933f, 0.1534869f,-0.1413646f, 0.0532501f, 0.0769650f,-0.1368051f,-0.1096783f, 0.1406291f,-0.0182237f, 0.0831222f,-0.0927706f,-0.1424758f, 0.1037528f,-0.0236485f,-0.1616284f, 0.1707521f,-0.0724764f, 0.0254353f, 0.0869254f,-0.1441144f, 0.0661987f,-0.2069047f,-0.0564900f, 0.0030308f,-0.0295464f, 0.0172397f,-0.0311682f, 0.0123734f, 0.0180017f,-0.1010401f,-0.0139847f, 0.0052312f,-0.0584951f,-0.0774972f,-0.0907765f, 0.0231372f,-0.1876532f, 0.1371953f,-0.0060927f, 0.1634210f,-0.0923648f,-0.1847788f, 0.1100419f,-0.0321632f, 0.1045102f },
        { -0.0286206f,-0.0451161f, 0.0614123f, 0.0537865f,-0.0345828f,-0.0477662f,-0.0108183f,-0.1446712f, 0.0965253f,-0.0152331f, 0.0090674f, 0.0010424f, 0.0625555f,-0.0970662f,-0.0135233f, 0.1295266f,-0.0078663f,-0.1570076f,-0.1371613f,-0.0133583f, 0.0274640f,-0.0162985f, 0.0697567f,-0.0770167f,-0.0500951f, 0.3160033f, 0.0401019f, 0.0864974f,-0.0964940f, 0.0905480f, 0.0384992f,-0.0508759f,-0.2795937f, 0.0415272f,-0.0023967f, 0.0136513f,-0.0939938f,-0.1375280f,-0.0738226f, 0.0968555f,-0.0583925f, 0.0569034f, 0.1793017f,-0.1039834f, 0.1635973f,-0.1991732f, 0.0530202f, 0.0710560f, 0.0265023f,-0.0721893f,-0.0221599f, 0.0946248f, 0.0952734f,-0.0772511f, 0.0090926f,-0.0942819f, 0.0025239f, 0.1769360f, 0.1222087f, 0.0188769f,-0.0645326f, 0.1127638f,-0.0828925f, 0.0168251f },
        {  0.0840556f, 0.0639335f,-0.0612624f,-0.0857848f, 0.1264706f,-0.0818206f, 0.0837858f,-0.0143705f, 0.0074491f,-0.1717601f,-0.1118741f,-0.0126379f,-0.0703720f,-0.0786775f, 0.0148529f, 0.2192174f, 0.0446654f, 0.0771135f, 0.1439310f,-0.0853920f, 0.1007072f, 0.0954893f,-0.0684181f,-0.1449966f,-0.0602599f, 0.1868231f,-0.1090125f, 0.0827107f, 0.1411885f, 0.0884355f,-0.0974205f,-0.1117415f,-0.1740896f,-0.1739346f,-0.0608613f,-0.0220065f, 0.0821460f,-0.0052446f, 0.1370516f, 0.0032777f, 0.0256309f,-0.1119782f,-0.0869194f, 0.0182734f,-0.0197574f,-0.0461380f, 0.0282536f, 0.1060960f,-0.0335933f,-0.1326680f, 0.0896303f,-0.0286607f,-0.1414971f, 0.1078587f,-0.0267829f,-0.0647767f,-0.0958045f, 0.0667669f,-0.0832961f, 0.1925754f,-0.0281957f, 0.0679228f, 0.0421905f, 0.0139221f },
        { -0.0177067f, 0.1151315f,-0.0833548f, 0.0125668f,-0.0169355f, 0.0280211f, 0.0982097f, 0.1502272f,-0.1127109f, 0.0437335f,-0.0076777f,-0.0543786f,-0.0197634f,-0.1324119f,-0.0330271f, 0.2465499f,-0.1458878f,-0.1187303f, 0.0608572f, 0.0884770f, 0.0493903f, 0.1022059f,-0.1123503f,-0.0226412f, 0.0515712f,-0.1629844f,-0.0430113f, 0.0609868f, 0.0370657f,-0.0403179f, 0.0973787f, 0.0967121f,-0.0093561f,-0.0698390f,-0.0603802f, 0.1282859f, 0.0136047f,-0.0508372f,-0.1405900f,-0.1007201f,-0.1159696f,-0.1682527f, 0.0358002f,-0.0929013f,-0.0787093f, 0.1179103f,-0.1429314f, 0.0307793f,-0.0230158f, 0.0495586f, 0.1610384f, 0.1044971f, 0.1083934f, 0.0785596f, 0.0407174f, 0.0087718f, 0.0431020f, 0.0522054f, 0.1385753f,-0.1455562f,-0.1241896f, 0.0339900f,-0.0441887f,-0.0693279f },
        { -0.0896365f, 0.0629033f,-0.0780504f, 0.0196133f,-0.1366953f,-0.0918836f,-0.0880876f, 0.0080940f, 0.0385942f,-0.1171333f, 0.0647369f, 0.0435541f,-0.0563387f,-0.0561682f, 0.0628193f,-0.0592534f,-0.1605482f,-0.0969643f,-0.1300395f,-0.0995486f, 0.0092460f,-0.0295596f,-0.0359000f, 0.1503826f,-0.0951386f, 0.0678454f, 0.0543340f,-0.0565661f,-0.0374065f,-0.1689370f,-0.0518677f, 0.0356620f,-0.0022384f,-0.0654230f,-0.0300154f,-0.0421925f,-0.1176156f, 0.0788887f,-0.1308357f,-0.0810132f,-0.1047668f, 0.0145537f,-0.1220257f, 0.0510205f,-0.0092168f, 0.0178862f,-0.1245597f,-0.0722057f,-0.0198472f,-0.0260762f, 0.0848333f,-0.0495421f, 0.1574561f,-0.0177134f, 0.0860625f, 0.0458702f,-0.0513934f, 0.0627839f, 0.0507807f,-0.0962002f,-0.0729904f,-0.0547760f,-0.0752630f,-0.0455555f },
        { -0.1436773f,-0.0079023f,-0.0091288f, 0.2596235f,-0.1983214f,-0.0303281f,-0.1827999f,-0.1162328f,-0.0573183f,-0.0319697f, 0.1332965f,-0.0031036f, 0.1554994f, 0.0494035f, 0.0380814f,-0.0001374f,-0.2226388f,-0.1473613f, 0.0508539f, 0.0499112f, 0.1912145f,-0.1702355f,-0.0129256f, 0.0051035f, 0.0433792f, 0.0985090f, 0.1926683f, 0.0898728f,-0.0656926f,-0.2199115f,-0.0872966f, 0.1376982f,-0.0035166f,-0.0740393f,-0.0234128f,-0.1480446f, 0.0434566f,-0.0498847f, 0.1172739f, 0.0732629f,-0.0236881f,-0.0040026f,-0.0403681f,-0.0034923f, 0.1768304f,-0.1703846f, 0.0449222f,-0.1065913f, 0.0393435f, 0.0291114f,-0.0876130f, 0.0498409f, 0.1228597f,-0.0166321f,-0.1020588f,-0.0509100f, 0.1336973f,-0.0307945f, 0.0404766f,-0.0708006f,-0.1285089f, 0.0992292f,-0.0890499f, 0.0014019f },
        {  0.0336779f, 0.0664834f, 0.1253549f, 0.1508349f, 0.0033553f, 0.0349208f, 0.0036609f, 0.0731364f,-0.0743546f, 0.1239536f, 0.2026725f, 0.0427190f, 0.1340405f, 0.0935231f, 0.0689770f, 0.0842356f,-0.0245144f,-0.2217391f,-0.0679127f,-0.0826920f, 0.1095391f, 0.0178528f, 0.0535197f, 0.1663724f,-0.1324213f, 0.1286422f, 0.1753740f, 0.1137508f, 0.1562229f,-0.0690022f,-0.1010488f,-0.0318155f, 0.0225423f,-0.0736395f,-0.0279589f, 0.0456098f,-0.0635812f, 0.1199339f, 0.0706516f, 0.0854116f,-0.0841689f,-0.0664865f,-0.0480169f,-0.1056497f, 0.1582690f,-0.1045720f, 0.1313180f, 0.0774502f,-0.1123872f,-0.0666332f,-0.0361001f, 0.1049728f, 0.0769697f,-0.0732224f, 0.0890415f,-0.0080903f, 0.0891044f, 0.1149252f,-0.0372019f, 0.0103588f,-0.0401039f,-0.0435371f, 0.0565146f,-0.0643893f },
        { -0.0911484f,-0.1580960f,-0.0356017f, 0.1171851f,-0.1025263f,-0.2341200f,-0.1743254f,-0.1702051f, 0.0783618f, 0.1160923f, 0.0706054f,-0.1231346f, 0.1106173f,-0.0634423f, 0.0984800f, 0.0102174f,-0.0660172f,-0.3988366f,-0.1052323f, 0.0105433f, 0.1657495f,-0.2237984f,-0.1361820f, 0.0733349f,-0.1854083f,-0.0946305f, 0.2184198f, 0.1931928f, 0.0120926f,-0.0458559f,-0.2279814f, 0.0837786f, 0.0357718f,-0.1684188f,-0.0492602f, 0.0412872f,-0.0648543f, 0.0704701f, 0.1133251f, 0.1728963f,-0.1261388f,-0.1085062f, 0.1772946f,-0.0225500f, 0.1147820f,-0.1788108f, 0.1124358f,-0.2407378f,-0.1144992f,-0.1023604f,-0.1140178f,-0.1061032f, 0.0230915f,-0.0846734f, 0.0263877f,-0.0202455f, 0.1129306f, 0.1023522f, 0.1777849f,-0.0435860f,-0.2239700f, 0.0950624f,-0.0805492f, 0.0716347f },
        {  0.1095589f,-0.0125293f,-0.0585314f,-0.0043260f, 0.0707238f, 0.1792147f, 0.1541450f, 0.0704300f,-0.0656215f, 0.0461211f,-0.1911211f, 0.2283092f,-0.2195385f,-0.0581074f,-0.0393811f, 0.0008272f, 0.0738289f, 0.1706543f, 0.1334393f, 0.1286913f, 0.0179672f, 0.0470668f,-0.0621376f,-0.0540331f, 0.0892096f, 0.0621928f,-0.0073050f,-0.0107324f, 0.0346053f, 0.1223718f, 0.1623769f, 0.0209917f,-0.0013201f, 0.1378080f,-0.1258965f, 0.0412744f,-0.1433021f,-0.0103146f, 0.0728550f,-0.1076746f, 0.2014933f, 0.0605085f, 0.0404903f, 0.0663080f,-0.1226763f,-0.1271758f, 0.0596974f, 0.2214672f, 0.1641264f,-0.0312704f, 0.0863204f, 0.0149293f,-0.0034744f,-0.0358276f, 0.0711999f, 0.0669862f,-0.0890785f,-0.0499933f,-0.0757573f, 0.1912318f,-0.0634513f, 0.0006099f, 0.0673886f,-0.0233398f },
        { -0.0343004f, 0.1470952f,-0.0910238f,-0.1668006f, 0.1465207f, 0.0481874f,-0.0178295f, 0.0552256f, 0.0611293f,-0.1115804f,-0.0098160f, 0.1227960f,-0.1845919f, 0.0290292f,-0.0517206f,-0.0491850f, 0.1503805f, 0.0374174f, 0.0118949f, 0.0642249f,-0.0194594f,-0.0666094f,-0.0733493f,-0.0517517f, 0.0692497f, 0.1583103f,-0.1205601f, 0.0061841f, 0.0257586f, 0.1263182f, 0.1082117f,-0.0431860f,-0.1061916f, 0.0902747f, 0.0728273f,-0.0297270f,-0.1343057f,-0.1377966f, 0.1357745f,-0.1418815f,-0.0483848f, 0.0936537f,-0.0178571f,-0.0516830f, 0.0297902f,-0.0728361f,-0.2006919f,-0.0099051f, 0.1282124f, 0.0023862f, 0.0084930f,-0.0861922f,-0.0005370f, 0.0779284f,-0.0425223f, 0.0070341f,-0.1353840f, 0.0637835f,-0.1338155f,-0.0325694f, 0.1522830f,-0.0442100f, 0.1804753f,-0.1603548f },
        {  0.0581819f, 0.1244560f,-0.0488470f, 0.0965919f, 0.0081293f,-0.1563694f, 0.0817075f,-0.0802481f,-0.0107185f,-0.0878197f,-0.0448157f, 0.1207001f, 0.0588743f, 0.0901400f,-0.0979407f, 0.0049043f,-0.1471795f, 0.0118469f,-0.0979342f, 0.0697539f, 0.1023579f,-0.0656663f,-0.1174265f,-0.0849448f,-0.0220124f, 0.0114766f, 0.0798705f, 0.0058088f, 0.0239843f, 0.0128417f,-0.0958652f, 0.1001878f, 0.0680082f,-0.0596893f,-0.0617687f, 0.0362812f, 0.0677502f, 0.1369094f, 0.1092635f, 0.0734094f, 0.0722588f, 0.0003508f,-0.0536867f,-0.0704585f,-0.0925043f, 0.0680789f, 0.1162319f, 0.0319320f,-0.0925970f,-0.0609326f, 0.0085712f,-0.1251033f,-0.0204330f, 0.0383822f, 0.0046130f,-0.0065477f, 0.1216719f,-0.0129973f, 0.0336960f,-0.1265312f,-0.0823571f, 0.0322481f,-0.1070068f, 0.0309456f },
        {  0.3489828f, 0.1096379f,-0.0333813f,-0.1391437f, 0.2115936f, 0.2171267f, 0.2247021f, 0.4929611f,-0.1267683f,-0.4168926f,-0.1737873f, 0.1010605f,-0.0611284f, 0.0736040f, 0.0656789f,-0.1791717f, 0.3201354f, 0.0980530f, 0.1941786f, 0.0862634f,-0.3122921f, 0.2061492f, 0.0656511f,-0.0782414f, 0.1370445f, 0.3220265f,-0.2366855f,-0.1657733f,-0.1303453f, 0.1707006f, 0.2773695f,-0.1342091f,-0.1166762f, 0.3141270f,-0.0752029f, 0.1139008f,-0.1347499f,-0.0814362f, 0.1952656f,-0.2945290f, 0.2632728f, 0.0710589f,-0.0652057f, 0.1350962f,-0.0382646f,-0.0336767f, 0.1442854f, 0.4258698f, 0.3182267f,-0.0086398f,-0.0727456f, 0.0991714f,-0.1289420f,-0.0108141f,-0.0925088f, 0.2578463f,-0.2725780f,-0.1978782f,-0.2304255f, 0.2177597f, 0.3049932f,-0.2514951f, 0.2345142f,-0.2988365f },
        {  0.0266939f, 0.1209515f,-0.0354791f, 0.0751880f, 0.0090217f, 0.0573208f, 0.1144112f, 0.1017678f, 0.1000730f, 0.0322273f, 0.0091761f, 0.0457334f, 0.0377429f, 0.0806055f,-0.0537794f,-0.0208000f, 0.1180588f, 0.0709364f, 0.0738044f, 0.0632179f,-0.1460321f, 0.0088309f, 0.0749016f,-0.1340989f, 0.1131456f, 0.0299649f,-0.1095051f,-0.0876045f, 0.0014946f, 0.0830939f,-0.0015919f, 0.0744367f, 0.1126100f,-0.0276592f, 0.0454965f,-0.0522486f, 0.0705807f,-0.0756649f, 0.0385736f,-0.0994883f,-0.0205393f, 0.1107268f, 0.0470757f,-0.0719678f,-0.1449612f, 0.1515236f,-0.1131878f,-0.0097341f, 0.0201543f,-0.0152141f,-0.0810360f,-0.1251598f,-0.1123972f, 0.0906951f, 0.0475703f,-0.0176259f,-0.0940667f, 0.0038758f,-0.1341608f,-0.1091504f, 0.1027102f,-0.0986336f,-0.0790094f,-0.1278371f },
        {  0.0213983f, 0.0083275f,-0.0668139f,-0.0341616f,-0.0921286f, 0.0634630f,-0.1007132f,-0.0149948f,-0.0131383f,-0.0925068f, 0.0963219f, 0.0263220f,-0.0125215f, 0.0999478f, 0.0931078f, 0.0476177f,-0.1130710f, 0.0654576f,-0.0306439f,-0.0090424f, 0.0209723f, 0.0577808f,-0.0143436f,-0.0356657f,-0.1192965f, 0.1061915f, 0.1044427f, 0.0105676f, 0.0507338f, 0.0507853f,-0.0835119f, 0.1085297f, 0.0584368f, 0.0704978f,-0.0271502f,-0.0850834f,-0.0236453f, 0.0169109f, 0.0112838f,-0.0707845f, 0.0385175f, 0.1031976f,-0.0660183f,-0.0341409f, 0.1023963f,-0.1078474f,-0.1026150f, 0.0342961f,-0.0586232f,-0.0805892f,-0.0773055f, 0.0311428f, 0.0658890f, 0.0753360f,-0.0976233f, 0.0216491f, 0.1078741f, 0.0764901f,-0.0671374f, 0.0935859f,-0.0604339f,-0.0404729f, 0.0713114f,-0.0849567f },
        { -0.0434558f,-0.0446756f,-0.0750839f,-0.0230795f,-0.2131603f,-0.0534114f,-0.1680926f,-0.0604046f, 0.1686075f,-0.0629018f, 0.1465705f,-0.1219373f, 0.0036494f,-0.0388070f, 0.0290179f, 0.2269058f,-0.0835623f,-0.0308757f,-0.0385058f, 0.0875105f, 0.1257132f,-0.0775650f, 0.0352011f, 0.0232499f,-0.0658846f,-0.1401986f, 0.1056767f,-0.0790785f,-0.1339102f,-0.0418704f,-0.1965295f, 0.0077434f,-0.0860344f,-0.0711730f, 0.0842398f,-0.0425254f,-0.0576992f, 0.1892822f,-0.1216829f, 0.0137713f,-0.0873892f,-0.0691620f,-0.0461004f,-0.1922986f, 0.1419756f, 0.0234852f,-0.1253062f,-0.1404808f, 0.0147102f, 0.0315409f,-0.0415931f, 0.0764784f, 0.1602114f, 0.0882693f, 0.0627121f,-0.1313171f, 0.0359977f, 0.0247224f, 0.1500262f,-0.1002463f, 0.0385472f, 0.0065584f,-0.0212794f,-0.0114610f },
        {  0.0930267f,-0.0029936f, 0.0384845f, 0.0762477f, 0.1218500f, 0.1252736f,-0.0144479f,-0.0743850f,-0.0367441f, 0.0073245f, 0.0204280f,-0.0733869f,-0.1040330f, 0.1407349f, 0.0103208f,-0.1203150f, 0.1392823f,-0.0913563f, 0.1440491f,-0.0251447f,-0.0889913f,-0.0820176f, 0.0574686f, 0.0858545f,-0.0523785f, 0.0698079f,-0.0765543f,-0.1271401f,-0.0191345f, 0.1492304f, 0.1285778f,-0.0088022f,-0.0466302f, 0.0368331f,-0.0888718f, 0.0828508f,-0.1005865f,-0.0661770f, 0.0600524f,-0.0857179f, 0.0327492f, 0.0652379f, 0.0744785f,-0.0235617f, 0.0245544f, 0.0534141f, 0.0565749f,-0.0431929f, 0.0726984f, 0.0569192f, 0.0846372f,-0.0380715f,-0.1570598f, 0.0677759f,-0.1144412f, 0.1028884f,-0.0746857f, 0.0524417f, 0.0261903f,-0.0015208f,-0.0507168f,-0.0775425f, 0.0628339f, 0.1003072f },
        { -0.0156192f,-0.0085951f, 0.0262402f, 0.1001318f, 0.0126802f,-0.0894112f,-0.0183201f, 0.1178677f, 0.0226444f, 0.1728753f,-0.0421980f, 0.0213741f,-0.0361433f, 0.0849906f,-0.0894827f, 0.0632524f, 0.0663028f,-0.0261432f,-0.0737479f, 0.0191548f,-0.0006395f, 0.1344486f,-0.0526215f,-0.1097317f,-0.0526517f,-0.0300934f, 0.0790746f,-0.0947212f, 0.0991865f,-0.0787232f, 0.1190688f,-0.0115372f,-0.0596500f,-0.1446440f,-0.1044159f,-0.0330154f,-0.0441274f, 0.0319289f,-0.0768555f,-0.0076919f, 0.0526930f,-0.1238219f,-0.0284054f,-0.0916481f,-0.1008002f, 0.0287123f,-0.1014380f,-0.1038032f, 0.0455921f,-0.0244914f,-0.0065247f,-0.0525119f,-0.1358422f,-0.0772905f,-0.0389800f,-0.1057861f,-0.1159469f, 0.0153404f, 0.0625264f, 0.0235334f,-0.0007521f, 0.0296884f, 0.0570085f,-0.1290303f },
        { -0.1562244f, 0.0335042f,-0.0563866f, 0.0266673f, 0.0637461f,-0.0751732f, 0.0632617f,-0.0251159f, 0.0546156f, 0.1016457f, 0.0435466f, 0.0449992f, 0.1400397f, 0.0127685f, 0.0299562f, 0.1613405f,-0.0533700f, 0.2080757f,-0.0423435f, 0.0562673f,-0.0549410f, 0.0530346f,-0.0982381f,-0.0785859f,-0.0502648f,-0.1364205f,-0.0055855f, 0.1400013f, 0.0373806f,-0.0214433f, 0.0560827f,-0.0071706f, 0.0334457f, 0.0391533f,-0.0667191f, 0.0149332f, 0.0265041f, 0.0505830f,-0.0673220f,-0.0087216f, 0.0551280f, 0.0495920f, 0.0560661f,-0.0712414f,-0.0008483f, 0.1487815f, 0.0536059f,-0.0218810f,-0.0911744f,-0.0221346f, 0.1319953f, 0.0773644f, 0.0548668f,-0.0931541f, 0.0713116f, 0.0387331f,-0.0413399f,-0.0585880f,-0.0319045f,-0.1498026f,-0.0101151f,-0.0099056f,-0.0334700f, 0.0329951f },
        { -0.0645887f, 0.0253249f, 0.0242891f,-0.0000122f,-0.0326352f,-0.1128369f,-0.1239978f, 0.0978130f, 0.0862425f, 0.0676266f,-0.0814381f,-0.0102684f,-0.0302053f,-0.1194736f,-0.0900468f,-0.1667722f,-0.0050026f, 0.0717609f,-0.1204190f, 0.0159648f, 0.0028145f,-0.0062810f, 0.0096735f,-0.0006281f, 0.0410330f, 0.0426253f,-0.0454430f,-0.0179423f, 0.0567347f,-0.0154783f, 0.1088641f,-0.0548432f, 0.0902217f, 0.0013957f,-0.0012960f, 0.0986178f,-0.0948825f, 0.0749484f,-0.0895857f,-0.0489422f, 0.0856712f, 0.0188638f,-0.0466237f,-0.0687752f, 0.0414741f, 0.0322373f,-0.1298812f, 0.1052236f, 0.0498769f,-0.0006295f,-0.1159876f,-0.0489956f, 0.0442379f,-0.0481578f,-0.0657086f, 0.0359427f,-0.0408642f, 0.0121432f, 0.0535298f, 0.0757373f, 0.0110332f,-0.0718163f, 0.0188715f,-0.1428511f },
        {  0.0020510f,-0.0140234f,-0.0203565f, 0.1740825f,-0.1495771f,-0.0620552f,-0.0575445f, 0.0396019f, 0.0456991f,-0.0298131f, 0.1362907f, 0.1086567f,-0.1056807f,-0.0199322f,-0.0778807f, 0.0284089f, 0.0625104f,-0.1027620f,-0.0267431f,-0.0748369f,-0.0438281f,-0.0656508f, 0.0071328f, 0.0069886f, 0.0398915f,-0.0973246f,-0.0188570f,-0.0021186f, 0.0161937f, 0.0995962f, 0.0571184f, 0.0605646f,-0.0032204f,-0.0254263f, 0.0650806f, 0.0956047f, 0.0809453f,-0.0307610f, 0.0289245f,-0.0246595f,-0.0600210f,-0.0221231f, 0.0738312f,-0.0263778f, 0.1300577f,-0.1561581f,-0.0134087f,-0.1239326f,-0.0997236f, 0.0272944f, 0.0291881f,-0.0728833f, 0.0917983f,-0.0959740f,-0.0800114f,-0.0749192f,-0.0585368f,-0.0417265f,-0.0927941f,-0.0341703f,-0.0014038f, 0.0255333f, 0.0738473f,-0.0057423f },
        { -0.1490084f,-0.0496389f,-0.0230974f,-0.0592573f,-0.1079365f,-0.1385540f,-0.0288565f, 0.0695395f, 0.0173292f,-0.0304057f, 0.0294705f,-0.0071234f, 0.0120256f,-0.0402572f,-0.1008593f, 0.0916404f,-0.0547311f,-0.1125260f,-0.1302440f,-0.0196614f,-0.1211560f,-0.1205163f,-0.1373104f,-0.0402792f,-0.0137603f,-0.0560508f,-0.0057574f,-0.0247292f, 0.0717809f,-0.1277355f,-0.0448806f, 0.1045106f, 0.0886637f,-0.0782248f, 0.0363750f,-0.1270492f,-0.0063884f,-0.0405799f, 0.0177722f, 0.0582531f,-0.1256182f, 0.0038934f, 0.0923639f,-0.0582912f, 0.1285022f,-0.1020139f,-0.0261462f,-0.0551765f,-0.0342237f, 0.0749729f, 0.0823014f,-0.0884878f,-0.0750648f,-0.0045353f, 0.0398845f,-0.0963303f, 0.0174971f, 0.0094766f, 0.0643877f, 0.0479742f,-0.0748440f, 0.0226816f,-0.1348362f, 0.0458843f },
        { -0.0811971f, 0.0667590f,-0.0037410f,-0.0892456f,-0.0345861f, 0.1276087f, 0.0484985f, 0.1146571f,-0.1183868f, 0.1241283f, 0.0619897f,-0.0404374f,-0.1099144f, 0.0005248f, 0.0945931f,-0.1177512f,-0.0491142f, 0.0890840f, 0.0838856f,-0.0164331f,-0.0278170f, 0.0231672f, 0.1364557f,-0.1152797f, 0.0642041f, 0.0999448f,-0.0372737f,-0.0272823f,-0.0408105f, 0.0931478f,-0.0632967f,-0.0134498f, 0.0345175f, 0.0281760f, 0.0712349f, 0.1295704f, 0.0980399f, 0.0225137f,-0.0116341f,-0.0860387f,-0.0197725f,-0.0003116f,-0.1110340f, 0.1598562f, 0.0392955f, 0.0383675f,-0.0961513f, 0.0542932f, 0.0889319f,-0.0284589f, 0.0836147f,-0.0610046f,-0.0579202f, 0.0208501f, 0.0195738f, 0.1300730f, 0.0870311f, 0.0108573f, 0.0775211f,-0.0265614f, 0.0427483f,-0.0309926f, 0.0561707f, 0.0758067f },
        { -0.0426907f,-0.0454187f,-0.0079653f,-0.1312959f, 0.0182395f, 0.0941459f,-0.0406638f, 0.0975159f, 0.0538410f, 0.2279966f,-0.0367127f, 0.0022515f, 0.1033412f,-0.1093561f,-0.1039611f,-0.1713899f,-0.0070779f, 0.1909456f,-0.0050136f, 0.0667750f, 0.0672305f, 0.1505890f,-0.1073832f,-0.1310253f, 0.0251401f,-0.1289549f,-0.1145758f,-0.0046441f,-0.0099981f,-0.0638108f,-0.0362777f, 0.0991930f,-0.0234219f, 0.0136045f,-0.0806342f, 0.0075060f, 0.0763514f,-0.0084737f, 0.0577126f,-0.0403386f,-0.0054558f, 0.0298525f, 0.0641229f,-0.0490796f, 0.0426944f, 0.1550540f, 0.1262387f, 0.0540962f, 0.0555614f, 0.1089845f, 0.0438501f, 0.0324098f,-0.0057857f, 0.0253325f,-0.0282108f, 0.0551805f,-0.0682312f,-0.0972147f,-0.0281519f,-0.1033612f, 0.0651789f, 0.1023020f, 0.0073440f, 0.0794096f },
        {  0.0632235f,-0.0227681f, 0.1292595f, 0.0621148f,-0.1332112f,-0.0593961f, 0.0823727f,-0.0041315f, 0.0133786f, 0.0509696f, 0.0593880f,-0.0008657f, 0.0355709f, 0.1095453f,-0.0411575f, 0.0226657f, 0.0760438f,-0.0243495f, 0.0771378f, 0.0222655f,-0.0113176f,-0.0520564f, 0.0857182f, 0.1253004f, 0.0047662f,-0.1827324f, 0.1146741f,-0.0838400f,-0.0697561f,-0.0941961f, 0.0555122f, 0.0564935f, 0.0617799f, 0.0223115f, 0.1530204f, 0.0060924f, 0.0518688f,-0.0156662f,-0.0104734f,-0.0597406f,-0.0375544f, 0.0179034f,-0.1062060f,-0.0743714f, 0.0309192f,-0.0276000f, 0.0432661f,-0.0179050f,-0.0655390f,-0.0610095f, 0.0074904f,-0.0790641f, 0.1428394f, 0.1035220f,-0.0193548f,-0.0455413f, 0.0352643f, 0.0269890f,-0.0315269f,-0.1153215f, 0.0074914f,-0.0673631f,-0.1159910f,-0.0520206f },
        {  0.0075934f, 0.0798092f,-0.0268340f, 0.0615483f, 0.0567110f, 0.1631152f,-0.0229804f, 0.0144401f, 0.0930448f,-0.1214525f, 0.0799903f,-0.0902799f, 0.0288971f, 0.0843397f, 0.1235902f, 0.0166819f, 0.0889243f, 0.2276742f, 0.1339660f, 0.0274703f,-0.0949716f,-0.0505107f, 0.0472127f,-0.1240135f, 0.0812519f,-0.0822102f,-0.1004587f,-0.0148172f,-0.0656178f,-0.1033646f,-0.0704172f, 0.0724085f,-0.1036718f,-0.0780328f, 0.0767951f, 0.1182098f, 0.0708902f,-0.0157529f, 0.0135325f,-0.1387857f,-0.0367788f,-0.0740670f,-0.0085398f,-0.0899322f,-0.0986397f, 0.1303397f,-0.1654243f, 0.1410405f,-0.1059226f, 0.0820710f,-0.0666919f, 0.1469952f,-0.0494984f, 0.1674344f, 0.1065859f, 0.0032294f, 0.0373591f, 0.0314180f,-0.0029703f, 0.0095944f, 0.0091368f, 0.0372590f,-0.0207898f,-0.0103857f },
        { -0.1032036f,-0.0880456f, 0.1506262f,-0.1204669f, 0.1172903f,-0.0489984f, 0.1095865f,-0.1087067f,-0.1173064f,-0.1245893f,-0.0301400f,-0.0868848f, 0.0700800f, 0.0286657f, 0.1130838f, 0.1548660f,-0.0055710f, 0.1966303f,-0.0416927f, 0.1265493f, 0.0157781f, 0.1082675f, 0.1362286f, 0.0183388f, 0.1428587f,-0.1786312f, 0.0146741f,-0.0577561f,-0.0806849f, 0.0222602f, 0.0186247f, 0.0256502f, 0.0046901f,-0.0245836f, 0.0962129f,-0.1088363f,-0.0633567f,-0.0318817f,-0.1622197f,-0.0768702f, 0.1410342f,-0.0607273f,-0.0669526f,-0.0179121f,-0.0315534f, 0.0570549f,-0.1313795f, 0.0013065f, 0.1016637f, 0.0199170f, 0.0311546f, 0.0817387f, 0.0612585f,-0.0348685f, 0.0717283f, 0.0274172f, 0.0941290f, 0.1369295f, 0.0637833f, 0.0329686f, 0.0093729f,-0.0598522f,-0.0824878f, 0.0916232f },
        { -0.0827526f,-0.1208844f, 0.0106680f,-0.0230671f,-0.0154899f,-0.1089082f, 0.0116481f, 0.0890381f,-0.0580199f, 0.0047795f, 0.1389914f, 0.0461724f, 0.0196985f,-0.1009917f, 0.1329023f,-0.1042780f, 0.0372663f, 0.0434193f, 0.0806427f, 0.0806671f, 0.0480569f,-0.0624864f,-0.0332879f, 0.1005075f, 0.0833462f,-0.1009093f, 0.0754057f,-0.0135693f,-0.1668091f, 0.1040579f,-0.0281945f, 0.0020106f, 0.0852626f, 0.0855534f, 0.0777632f, 0.0863650f, 0.0432632f,-0.0747363f,-0.0310960f, 0.0913847f, 0.0727872f, 0.0503285f,-0.0880619f,-0.0833091f, 0.0027187f,-0.0123780f,-0.0021510f,-0.1673165f, 0.1215383f, 0.0542088f,-0.0098978f,-0.0557437f,-0.0722461f,-0.1284576f, 0.0432783f,-0.0739707f,-0.0056208f,-0.0954060f, 0.0157392f, 0.0558567f, 0.1087372f, 0.1450827f, 0.0019950f,-0.0329478f },
        { -0.0241824f, 0.0694250f,-0.0971340f,-0.1612717f,-0.1872769f,-0.0343931f,-0.1521812f, 0.0190236f, 0.0574663f, 0.0645890f,-0.1081397f, 0.0990769f, 0.0134703f,-0.0623069f, 0.1402508f, 0.0335459f,-0.0714729f, 0.2647588f,-0.0404652f,-0.0685382f,-0.0229391f,-0.0464655f, 0.0207962f,-0.0551581f, 0.0833466f, 0.0589682f,-0.1941013f,-0.1173597f,-0.2154072f,-0.0908581f, 0.0092872f, 0.0580371f,-0.0491658f, 0.1475309f,-0.1368358f,-0.0884360f,-0.0475779f,-0.0466113f,-0.0736084f, 0.0912811f, 0.0166861f,-0.0468339f,-0.1878614f, 0.0529784f,-0.0622653f, 0.2256606f,-0.0840055f, 0.1170493f,-0.0144660f, 0.0717124f,-0.0379479f, 0.0359261f, 0.2466557f, 0.0787281f,-0.0101980f, 0.0283586f,-0.1054869f,-0.0479609f,-0.1144019f,-0.3934816f, 0.0902648f, 0.0684794f,-0.0249373f, 0.0308629f },
        { -0.1488553f,-0.0926423f, 0.0318498f, 0.1357674f,-0.0000195f,-0.0061009f,-0.0011993f,-0.1467725f, 0.0968125f, 0.0339637f, 0.1126784f, 0.0065132f,-0.1063987f,-0.1391897f,-0.0899893f, 0.1274898f,-0.1123382f,-0.0364496f, 0.0257744f, 0.0691315f, 0.1541748f, 0.0941705f,-0.1150136f, 0.0582228f,-0.1215635f, 0.0068344f, 0.1566403f, 0.0927476f, 0.0757015f,-0.0318675f,-0.1568642f,-0.0830534f,-0.1494291f,-0.0570425f, 0.0370988f,-0.0582948f,-0.1031091f, 0.0188528f,-0.1054863f,-0.0460701f,-0.0559730f, 0.0352714f,-0.0687255f,-0.0942973f, 0.0947695f,-0.0166219f, 0.0239939f,-0.0960980f,-0.0962608f, 0.0807887f,-0.0504159f, 0.0924965f, 0.0255055f, 0.0347058f,-0.1363463f,-0.0929724f,-0.0572147f,-0.0075738f, 0.0743184f,-0.0671510f,-0.1916542f,-0.0493833f, 0.0258973f, 0.1293851f },
        {  0.1680315f,-0.0534750f, 0.0342911f, 0.0469179f, 0.0377892f, 0.1693065f, 0.0927612f,-0.0093915f,-0.0914242f, 0.1016207f,-0.1028888f,-0.0869465f, 0.0129849f,-0.0291153f, 0.0078213f,-0.1219359f, 0.1293327f, 0.1715718f, 0.1264260f, 0.0278023f, 0.0261846f,-0.0834608f,-0.0721865f, 0.0143262f, 0.1217341f, 0.0350694f,-0.0855013f, 0.0004034f,-0.0167430f,-0.0327626f, 0.1570868f, 0.0755211f,-0.0841850f,-0.0109069f, 0.1010525f, 0.0620510f,-0.0273119f,-0.0711329f,-0.0955219f,-0.0818470f, 0.1449022f, 0.0585010f, 0.0514455f, 0.0672606f, 0.0716045f, 0.0958156f,-0.0292234f, 0.0242043f, 0.1470704f, 0.0787198f, 0.0436497f,-0.0451806f,-0.1316815f,-0.0893968f, 0.1314028f, 0.0473765f,-0.1471639f,-0.0370465f, 0.0761971f, 0.0676155f, 0.0641920f,-0.0629666f, 0.1030294f,-0.0967896f },
        {  0.1712621f, 0.3280379f, 0.2719404f,-0.2195175f, 0.3816108f, 0.1738913f, 0.2941732f,-0.0167922f,-0.2960673f, 0.4645273f,-0.3560319f, 0.3406682f,-0.2130179f, 0.1813224f,-0.3792509f,-0.5222463f, 0.1593797f, 0.1264465f, 0.3533174f, 0.0274827f,-0.0858911f, 0.1191199f, 0.1442124f,-0.3647283f, 0.1145951f, 0.2188822f,-0.1682350f,-0.2379579f, 0.2441926f, 0.2245382f, 0.2406531f,-0.3400640f,-0.0214253f, 0.1330443f,-0.0174570f, 0.1614100f,-0.1578160f,-0.3355930f, 0.3788141f,-0.2482367f, 0.2859132f, 0.1154678f, 0.0200301f, 0.1307580f,-0.2093481f,-0.2408504f, 0.4537117f, 0.2984937f, 0.3342614f, 0.0148974f, 0.0949595f,-0.0961841f,-0.3394510f,-0.0050426f,-0.0693532f, 0.1228330f,-0.2651720f,-0.3662430f,-0.1367353f, 0.4444814f, 0.2268719f,-0.2630236f, 0.3726718f,-0.1869698f },
        { -0.0978971f, 0.0808013f, 0.0753817f, 0.0265828f,-0.0977729f, 0.0603381f,-0.0854349f, 0.1005704f, 0.0408439f, 0.0033015f,-0.1070919f,-0.0723591f,-0.0975423f,-0.1073313f,-0.0978023f, 0.1696046f,-0.1255011f,-0.0688008f, 0.0335088f,-0.0273247f,-0.0224143f, 0.0440516f, 0.0950623f, 0.1085121f, 0.0956239f,-0.0736908f,-0.0859193f, 0.1191097f, 0.1143249f,-0.0004624f,-0.0630274f, 0.0981456f,-0.0801456f,-0.1039684f,-0.0637341f,-0.0445832f,-0.0586821f, 0.0929986f,-0.1276925f, 0.0081717f,-0.1112137f, 0.1111969f, 0.0353548f,-0.0483043f,-0.0224698f, 0.0023220f,-0.0264790f, 0.0836834f,-0.0161371f, 0.0889442f,-0.0401819f, 0.0315154f, 0.0622474f, 0.1178517f,-0.0965896f,-0.0568040f, 0.1129599f,-0.0213311f, 0.0517153f,-0.0676089f,-0.1107339f,-0.0051209f, 0.0106152f,-0.0204455f },
        { -0.0767033f, 0.1148541f,-0.0840674f,-0.0525009f,-0.0088101f, 0.1311309f, 0.1392965f, 0.0390524f,-0.0877223f,-0.1674676f,-0.0114369f,-0.0010783f,-0.1461994f, 0.0723954f,-0.0558111f,-0.1139902f, 0.1539812f,-0.0161389f,-0.0245932f, 0.1607183f,-0.0091126f, 0.0900189f, 0.0178773f,-0.0372934f,-0.0358545f, 0.0254002f,-0.1310325f,-0.1331812f, 0.0094254f, 0.0545350f, 0.0238408f, 0.0007955f, 0.1536534f,-0.0432947f,-0.0817295f, 0.0781751f,-0.0114086f,-0.0082165f, 0.0571933f, 0.0388380f, 0.0729139f, 0.0875934f,-0.0996785f, 0.0969974f,-0.0002269f,-0.0667981f,-0.0193136f, 0.0600057f, 0.1567527f,-0.0797863f, 0.0470422f, 0.0310288f,-0.1484088f,-0.0335199f, 0.0088943f, 0.0281034f, 0.0230659f, 0.0934348f,-0.0110895f,-0.0458506f, 0.1226192f,-0.1766151f, 0.1905461f, 0.0969659f },
        { -0.0739001f,-0.1515608f, 0.1365102f, 0.1430831f,-0.1579913f,-0.1012198f,-0.0780094f, 0.0126236f, 0.0331109f, 0.0510383f, 0.0989331f, 0.1263349f,-0.0012214f,-0.0059111f,-0.0455593f,-0.0021560f,-0.0985053f,-0.0315282f,-0.1164479f, 0.0817494f, 0.0237760f,-0.0025312f, 0.0310923f, 0.1625338f, 0.0599761f,-0.0089423f, 0.1022294f, 0.0877203f, 0.1341753f,-0.0372564f,-0.0897025f,-0.0560874f,-0.0253731f,-0.1315264f,-0.0367826f,-0.0871180f, 0.0387654f, 0.1132343f, 0.0391441f, 0.0996541f, 0.0085589f,-0.0177050f,-0.1013853f, 0.0640917f, 0.0418607f,-0.1980930f, 0.0805158f, 0.1252507f,-0.0612836f,-0.1051589f, 0.0505088f, 0.0192722f,-0.0416569f,-0.0850696f, 0.0723890f,-0.1161607f, 0.0167542f, 0.1920839f, 0.0177739f, 0.0996569f,-0.0231963f, 0.0636533f,-0.0687684f,-0.0071273f },
        {  0.0516490f,-0.1223821f, 0.0902522f, 0.1152492f,-0.0265508f,-0.1524774f,-0.1041551f,-0.0384794f,-0.0222823f, 0.0545165f, 0.0434613f,-0.0246616f, 0.0446823f,-0.0284003f, 0.0048824f,-0.0601629f,-0.1540969f,-0.1274520f, 0.0073222f, 0.0491927f, 0.1136963f, 0.0587262f, 0.0398264f,-0.0129621f, 0.0339551f,-0.1240949f, 0.1545068f, 0.1252985f, 0.0519887f,-0.1314189f,-0.0886259f, 0.1172189f, 0.1254491f, 0.0667702f,-0.0346077f,-0.0626937f, 0.0754030f, 0.0676645f,-0.0365294f,-0.0700229f,-0.1936142f,-0.1234697f, 0.0596018f,-0.0676856f, 0.0535464f,-0.1235005f,-0.0680168f,-0.1080856f,-0.0970554f,-0.0100459f,-0.1151639f, 0.0874707f, 0.1406479f,-0.0705668f,-0.0578158f,-0.0266899f, 0.0427589f, 0.1251518f, 0.0486158f, 0.0428553f, 0.0128391f, 0.0343639f,-0.0829043f, 0.1376530f },
        {  0.0793986f, 0.0391974f, 0.0956842f,-0.1478745f, 0.0184769f, 0.0969229f, 0.0575337f, 0.0369430f,-0.1292497f, 0.0721743f,-0.0994046f, 0.0087570f,-0.0587189f,-0.0301517f,-0.0555792f, 0.0961350f, 0.1600019f, 0.0404233f, 0.0525122f, 0.0264647f, 0.0482614f, 0.0364262f, 0.0105539f,-0.1098322f, 0.0796733f, 0.0696255f,-0.0066772f,-0.0820499f,-0.0208472f, 0.1341881f,-0.0218351f, 0.0124221f, 0.0330344f,-0.0378399f,-0.0753854f,-0.0128273f, 0.0298621f, 0.0398638f, 0.1058079f,-0.0736106f, 0.0104555f,-0.0011925f, 0.0235060f, 0.1356637f,-0.1243475f,-0.0092011f,-0.0921056f, 0.0252799f,-0.0639993f,-0.0781538f,-0.0238692f,-0.0092870f,-0.0828478f, 0.0961380f, 0.1425518f, 0.0512873f,-0.0170280f,-0.0435150f,-0.1566675f,-0.0478240f, 0.0806868f,-0.0887859f, 0.1530827f,-0.0282994f },
        {  0.0829562f, 0.0604544f, 0.0184744f,-0.0443997f, 0.1857613f, 0.0596645f, 0.0670316f, 0.1583808f, 0.0039829f,-0.0500390f,-0.0926189f, 0.1320997f,-0.1110328f, 0.0398148f,-0.0262991f,-0.1630545f, 0.1561974f,-0.0305850f,-0.0265579f, 0.1194242f,-0.0018182f,-0.0471532f, 0.0292852f, 0.0599417f,-0.0635236f, 0.1107012f,-0.0454980f,-0.0763947f, 0.1062526f,-0.0134334f, 0.1649730f,-0.1107187f,-0.1366492f, 0.0113543f,-0.0037504f, 0.1188413f,-0.0326831f,-0.1325367f,-0.0700502f, 0.0633013f,-0.0062791f, 0.0896330f,-0.0373470f, 0.0938800f,-0.0385523f, 0.0337611f,-0.0807975f, 0.2236222f, 0.0782707f,-0.1002240f,-0.1110449f,-0.0824107f,-0.0785785f, 0.0933392f,-0.0132834f, 0.1190550f,-0.1147439f,-0.0623239f,-0.0944714f, 0.0740599f, 0.0136528f, 0.0156642f, 0.1149715f,-0.1139999f },
        { -0.0934423f,-0.0863724f, 0.1533083f, 0.0456319f, 0.0278413f, 0.1504926f, 0.0613861f,-0.0230779f,-0.1108182f, 0.0657013f,-0.0815999f, 0.0577286f, 0.0173138f,-0.0281145f,-0.1062668f, 0.0775466f,-0.0560914f, 0.1642375f, 0.1433548f, 0.1536548f, 0.0131839f, 0.0719815f,-0.0375814f,-0.1538148f,-0.0043297f,-0.1859444f,-0.1288058f, 0.0418702f, 0.0770733f,-0.0183580f, 0.0721031f,-0.0630804f, 0.0072348f,-0.0335272f, 0.0887577f, 0.1174295f,-0.0822643f, 0.0393873f,-0.0494645f, 0.1161575f, 0.0894046f, 0.0660631f,-0.1098413f, 0.0877163f,-0.1046567f, 0.0603976f,-0.0173475f,-0.0716258f, 0.0507628f,-0.0184234f, 0.0302886f,-0.0546340f, 0.0070809f, 0.0375457f, 0.1446441f,-0.0319624f,-0.0159944f,-0.1155622f, 0.0605034f, 0.0170612f, 0.0664464f, 0.0506182f,-0.0236769f,-0.0694426f },
        {  0.1213025f, 0.0939594f, 0.0258970f, 0.0040830f, 0.0536335f, 0.0845882f, 0.0583832f, 0.2135551f, 0.0717070f,-0.1579252f,-0.0598532f,-0.0267498f,-0.0142629f,-0.0464684f, 0.0705963f, 0.0103899f, 0.0576212f, 0.0142566f,-0.0361002f, 0.0784399f,-0.1377714f,-0.0772361f,-0.0468215f,-0.1576762f,-0.0116398f, 0.0359871f,-0.1191833f,-0.0481661f, 0.0643388f, 0.1473766f, 0.0797445f,-0.0005788f,-0.0351429f, 0.2008179f,-0.1505955f, 0.0631247f,-0.0379172f,-0.0242764f, 0.1862175f,-0.1453335f, 0.1727085f, 0.1229281f, 0.0210658f, 0.0071815f, 0.0791264f,-0.1526139f,-0.1385790f, 0.1748992f, 0.1545723f, 0.0157975f,-0.0664296f,-0.0036443f, 0.0795070f, 0.1847380f, 0.0671194f, 0.1207520f,-0.0366240f, 0.0019318f,-0.0377185f, 0.1154533f, 0.0506066f,-0.1679611f,-0.0748869f, 0.0344220f },
        {  0.1756969f, 0.0240752f, 0.0231962f,-0.1346163f, 0.1482367f,-0.0643713f,-0.0629037f,-0.0037567f, 0.0822236f, 0.1204404f, 0.0031556f,-0.0550609f,-0.0752149f, 0.0329274f, 0.1089314f, 0.0130757f,-0.0642760f, 0.1367125f, 0.1557884f,-0.0046663f,-0.0390036f, 0.0511629f, 0.1432450f, 0.0534896f, 0.0523621f,-0.0318043f,-0.0086752f, 0.0860698f,-0.0510396f, 0.1222697f,-0.0351520f, 0.0620290f,-0.0107063f, 0.0630395f, 0.0797300f, 0.1226293f, 0.1203853f,-0.1650310f,-0.0795457f, 0.0491968f, 0.0014483f, 0.0654784f,-0.0648291f,-0.0484655f,-0.0306508f,-0.0145027f,-0.0309394f,-0.0252936f, 0.0739331f,-0.0002873f,-0.1267344f, 0.0536057f,-0.0920041f,-0.0924028f,-0.0428227f, 0.1385197f,-0.1544150f, 0.0473171f, 0.0110980f, 0.0475093f, 0.1125968f, 0.0724602f, 0.0760559f,-0.0424582f },
        { -0.0748565f,-0.0857105f,-0.0350348f, 0.0103232f,-0.0462574f,-0.1593278f,-0.1823995f,-0.0746115f, 0.1383801f, 0.0509790f, 0.1162288f,-0.0718481f,-0.0266171f,-0.1013208f, 0.1234894f, 0.4595222f,-0.1884535f, 0.2971081f,-0.1047335f,-0.1090793f,-0.0612349f,-0.0605996f,-0.1002013f, 0.1540689f, 0.1258566f,-0.1688776f, 0.1455389f,-0.0502466f,-0.0348402f,-0.2746614f, 0.0030233f, 0.2177075f,-0.0574492f, 0.0010530f, 0.0830262f,-0.2489812f,-0.0052422f, 0.0384352f,-0.1067542f, 0.1186692f,-0.0551315f,-0.0115498f,-0.1116509f,-0.1109695f, 0.0711025f, 0.1986069f, 0.1133913f,-0.2731254f,-0.0422058f, 0.0065850f,-0.1112119f, 0.0768239f, 0.2319443f,-0.0768569f,-0.0059346f,-0.1833386f, 0.1805244f, 0.0525847f, 0.1381836f,-0.1640167f,-0.0586767f, 0.1633533f,-0.2136353f, 0.0461176f },
        {  0.1073907f, 0.1045014f, 0.0995224f, 0.0506254f, 0.0640400f,-0.0189990f, 0.0690282f,-0.0140158f,-0.1363873f, 0.1126446f, 0.1038882f, 0.0420000f, 0.1383883f, 0.0471626f, 0.1409290f,-0.0539139f,-0.0512598f,-0.0277304f,-0.0423870f, 0.0077040f, 0.1288058f,-0.0556292f,-0.0916857f,-0.0979832f,-0.0105678f,-0.0531646f,-0.0732562f, 0.0842972f, 0.0712320f,-0.1031946f,-0.0196866f,-0.0323044f, 0.0022075f, 0.0296482f,-0.0487207f, 0.0444230f,-0.0353498f,-0.1351899f, 0.1000164f,-0.0859810f,-0.0309323f,-0.0253906f,-0.0284488f, 0.1232655f, 0.0769794f,-0.0654166f,-0.0312224f, 0.0795899f,-0.0586971f, 0.1469344f, 0.0584169f,-0.0963951f,-0.0237399f,-0.0556438f,-0.0025553f, 0.0320560f,-0.0316923f,-0.0116294f,-0.1041179f, 0.0678815f,-0.0719755f,-0.1366439f, 0.1129123f,-0.0788417f },
        { -0.0764763f, 0.1041255f,-0.0240414f, 0.1078292f, 0.0640011f,-0.0927694f, 0.0853721f, 0.0723559f, 0.0583867f, 0.0521797f,-0.0222666f, 0.0586525f,-0.1159031f,-0.1105276f,-0.0585947f, 0.1708863f,-0.0612552f, 0.0038353f, 0.0194310f, 0.0204038f, 0.0045022f, 0.0650075f, 0.0216528f,-0.0561872f,-0.0569600f,-0.0192012f, 0.0901305f, 0.0139749f, 0.0550835f,-0.1066563f, 0.0446339f,-0.0272354f, 0.0018524f,-0.0167203f,-0.0352792f, 0.0608009f, 0.0926890f, 0.1188224f,-0.0183207f, 0.0215612f,-0.0308096f, 0.0414689f,-0.0756406f,-0.0020823f, 0.1352828f, 0.1838639f,-0.0157416f,-0.0591437f, 0.0829479f, 0.0804668f,-0.0327258f,-0.1050068f, 0.1118425f, 0.1161202f,-0.0974387f, 0.0426347f, 0.0131299f, 0.0422508f,-0.0857167f,-0.1372395f,-0.0084873f,-0.0354766f,-0.0887591f, 0.0970685f },
        { -0.0078030f, 0.1873969f,-0.0339304f,-0.1918920f, 0.1260025f, 0.0216168f,-0.0715481f,-0.0382747f, 0.0763061f, 0.1047159f,-0.1584835f, 0.2088829f,-0.0717048f, 0.3133475f,-0.1413405f, 0.2028325f, 0.0081276f, 0.6281378f, 0.0281374f,-0.0088922f,-0.1041689f, 0.1215034f, 0.0346825f,-0.0222652f, 0.0187821f,-0.1017431f,-0.2071281f,-0.1733712f,-0.6770294f,-0.0948985f, 0.0029475f, 0.1260473f,-0.1398830f, 0.2045036f,-0.0938479f,-0.0419452f, 0.0173488f,-0.0170986f, 0.1274572f, 0.0498380f,-0.0503456f, 0.0170326f,-0.2393950f, 0.0691786f,-0.1885071f, 0.4740829f, 0.2485531f, 0.0023230f, 0.1673708f, 0.1334920f,-0.0569648f,-0.3034322f, 0.1132162f, 0.2241149f,-0.0176510f, 0.2105090f,-0.1245205f,-0.2125652f,-0.0451363f,-0.5451350f, 0.0720222f,-0.0275444f, 0.0033356f,-0.0191397f },
        {  0.0137854f,-0.0657528f,-0.0323310f,-0.0712389f, 0.1234047f, 0.0439514f,-0.0466296f, 0.0536348f,-0.0720570f, 0.1205783f,-0.0641051f,-0.1142100f, 0.0906857f, 0.0972182f,-0.0785861f,-0.0069937f,-0.0701877f, 0.1673336f,-0.0906637f, 0.0840426f, 0.1061510f,-0.0034329f, 0.0556287f, 0.0659791f, 0.1634880f,-0.0743356f,-0.0512420f, 0.0704340f,-0.0509184f, 0.0883100f,-0.0277183f,-0.0078558f,-0.0352582f, 0.1491395f,-0.0393790f, 0.0991471f, 0.0021855f,-0.0791228f, 0.1043742f, 0.0362998f,-0.0968193f, 0.0871693f, 0.0198547f,-0.0883879f, 0.0560542f, 0.1195317f, 0.1054577f, 0.0149971f, 0.0671586f, 0.0219552f, 0.0526884f,-0.0696561f,-0.0713412f,-0.0909410f, 0.0256085f, 0.0577823f,-0.0784888f,-0.1092808f, 0.0420771f,-0.0750998f,-0.1046665f,-0.0644168f, 0.0262729f, 0.0785780f },
        {  0.0607011f,-0.0001964f, 0.0450188f, 0.0550244f,-0.1043678f,-0.0861163f,-0.0571348f,-0.0566448f,-0.0814356f, 0.0571245f,-0.0511097f, 0.1538150f,-0.0902340f,-0.0000578f, 0.0033722f,-0.1205874f, 0.0803869f,-0.1803867f,-0.0677229f,-0.0983955f,-0.0056626f, 0.0421772f,-0.0664960f,-0.0178926f, 0.0182051f, 0.1368989f, 0.1187079f, 0.1272056f, 0.0626917f,-0.0451548f,-0.0231846f,-0.0070529f,-0.1029586f,-0.0112685f, 0.1184390f,-0.0782728f, 0.0034775f,-0.0177038f, 0.0746871f,-0.0899033f, 0.0855884f, 0.1039013f, 0.1020539f, 0.0841313f,-0.0872177f,-0.0155674f,-0.0793590f,-0.1020135f, 0.0076204f,-0.0701562f, 0.0601139f,-0.0978809f,-0.0890171f,-0.0003174f,-0.0574201f, 0.0056076f,-0.1157075f,-0.0957362f, 0.1036130f, 0.1212812f, 0.0025327f,-0.0559970f,-0.0397512f, 0.0515602f },
        { -0.0974645f,-0.0641957f, 0.0456407f,-0.0150713f, 0.0392805f,-0.0527865f,-0.1170013f,-0.1428133f, 0.1243730f, 0.0489591f, 0.1186699f,-0.1136641f,-0.0047040f,-0.0075724f,-0.0894327f,-0.1616343f,-0.1232893f, 0.0511632f,-0.1097092f,-0.0743212f, 0.0902097f, 0.0669331f, 0.0463018f,-0.0665979f, 0.0231190f,-0.0701384f, 0.0180639f,-0.0248591f, 0.0577847f, 0.0240512f,-0.0233569f,-0.0949700f, 0.0969608f,-0.1702930f, 0.0819097f,-0.0451587f, 0.0856665f, 0.0840563f, 0.0095280f, 0.0412233f,-0.0684555f,-0.0746109f, 0.0965024f, 0.0182904f, 0.0962555f,-0.1125711f,-0.0902175f,-0.1253686f,-0.1435224f,-0.0085104f,-0.0484880f, 0.0627480f, 0.0105218f,-0.1176509f,-0.0577890f,-0.1124293f, 0.0920381f, 0.1056824f,-0.0786433f, 0.0448273f, 0.0081238f, 0.0036424f,-0.0399796f,-0.0620139f },
        {  0.1123902f, 0.1795858f, 0.0891043f,-0.0584844f, 0.0562801f, 0.0759724f,-0.0039108f, 0.2141517f,-0.0261389f,-0.0223223f,-0.0169805f, 0.0267183f,-0.1162745f, 0.0278805f,-0.1781240f, 0.1668463f, 0.0758805f, 0.0361267f, 0.0524852f,-0.0438019f,-0.1331427f, 0.1302729f, 0.0953741f,-0.2450243f, 0.0684395f, 0.2389260f,-0.2093384f,-0.1999598f, 0.0869355f, 0.0250222f, 0.1063185f,-0.0803523f,-0.0947738f, 0.1140706f,-0.2016370f, 0.2352546f,-0.1087683f,-0.0430777f, 0.1006663f,-0.1118635f, 0.2022994f,-0.1134475f,-0.0104279f, 0.2323484f, 0.0375933f, 0.0372603f,-0.1164479f, 0.1359538f, 0.1164449f, 0.0456735f, 0.0669144f, 0.0003139f,-0.1029065f, 0.1504595f,-0.0805984f, 0.1859597f,-0.1295887f,-0.1668579f,-0.0236612f, 0.0265029f, 0.0045827f,-0.0833215f, 0.0634122f,-0.1355399f },
        {  0.0254910f, 0.0949283f, 0.1338148f, 0.0580221f,-0.1472757f, 0.0445346f, 0.0008407f,-0.1028618f, 0.1369359f,-0.0949395f,-0.0227981f, 0.1095172f, 0.0433237f, 0.0474842f, 0.0093232f, 0.0024676f,-0.0186027f, 0.1829252f,-0.0221460f,-0.0504309f,-0.0626643f,-0.0101524f,-0.0212569f, 0.1240487f, 0.1083087f,-0.0839805f, 0.0629158f,-0.0737883f,-0.1163940f,-0.0020858f,-0.0697810f, 0.0731638f,-0.0504541f,-0.0305584f,-0.0313235f,-0.0302792f, 0.0766284f,-0.1006559f, 0.1201318f,-0.0754866f, 0.0665991f,-0.0376115f,-0.0264205f,-0.0111984f, 0.0699115f, 0.1581468f, 0.0470733f,-0.0467233f, 0.0957264f,-0.0546770f,-0.0657210f, 0.1142967f,-0.0058101f,-0.0565659f,-0.0045079f,-0.1203240f, 0.1252438f, 0.0528408f, 0.1430966f, 0.0678876f,-0.0360180f,-0.1270914f,-0.0200794f, 0.0224141f },
        {  0.1687759f,-0.0571562f, 0.0357433f, 0.0280755f, 0.1151633f, 0.1619169f, 0.0537532f, 0.1561327f,-0.0864585f, 0.1721351f,-0.0289082f, 0.0529272f, 0.0094519f,-0.0107722f,-0.0916561f,-0.0957963f, 0.0875061f, 0.0017239f, 0.1666290f, 0.0370479f, 0.0628899f, 0.0573422f,-0.0490119f,-0.0354362f, 0.1020176f,-0.0363628f,-0.0923702f,-0.0817987f,-0.1278856f, 0.1966121f,-0.0034639f,-0.1061039f, 0.0642340f,-0.0421451f,-0.0369520f, 0.0712031f, 0.0425528f,-0.0706843f, 0.0245058f, 0.0817058f,-0.0450452f,-0.0389984f,-0.0774989f,-0.0375818f,-0.1135266f, 0.0608015f,-0.0300266f,-0.0236229f, 0.0789918f, 0.0813589f,-0.0443175f,-0.0530946f,-0.0932831f, 0.0026077f,-0.1001300f, 0.0305921f,-0.1778781f,-0.1272937f,-0.0616238f, 0.0732594f, 0.1448763f,-0.0164134f, 0.1174181f,-0.0785090f },
        {  0.5015567f, 0.5995194f,-0.0679876f,-0.6916691f, 0.8604494f, 0.6640422f, 0.5747877f, 0.2319961f,-0.6643525f, 1.2248535f,-0.8139123f, 0.8008415f,-0.6920060f, 0.3456206f,-0.9476553f,-0.9536318f, 0.6760357f,-0.1632145f, 0.6734024f, 0.0169169f,-0.4608862f, 0.5872563f, 0.3106296f,-0.5981531f, 0.3281813f, 1.3659352f,-0.6489313f,-0.5147049f, 0.1447555f, 0.7398226f, 0.5995479f,-0.6428753f,-0.1707973f, 0.4821561f,-0.5578908f, 0.6897899f,-0.6067317f,-0.8653560f, 0.6954443f,-0.6502652f, 0.6135115f, 0.0878695f,-0.3039821f, 0.5026989f,-0.6802551f, 0.7303625f, 1.0624295f, 0.3146874f, 0.5004581f, 0.2267639f,-0.0093611f,-0.3011349f,-0.9074290f, 0.5106118f,-0.1960167f, 0.6356587f,-0.8028154f,-0.8184113f,-0.6021296f, 1.0685270f, 0.5769921f,-0.7327033f, 0.5504190f,-0.5745121f },
        { -0.1496014f, 0.0711337f,-0.0581766f, 0.0057464f, 0.0452676f, 0.0840400f, 0.0946134f, 0.0005940f,-0.0239431f,-0.0147302f, 0.0299511f,-0.0897397f, 0.1184779f,-0.0126577f, 0.0510471f, 0.0658097f,-0.0800279f, 0.0773696f,-0.0044781f, 0.0536464f, 0.1274354f, 0.0328228f, 0.0583984f, 0.0486526f, 0.1178021f,-0.0125716f, 0.0130546f, 0.0714345f, 0.0113440f, 0.0645620f,-0.1572258f, 0.1439324f,-0.0068789f, 0.0140382f, 0.0289590f,-0.0261817f,-0.0686111f,-0.0137628f, 0.0268366f, 0.0111451f, 0.0414727f, 0.0033748f,-0.0494121f,-0.0402588f, 0.0098123f,-0.0302546f,-0.1265472f, 0.0172383f, 0.0544030f, 0.0779003f, 0.0238585f, 0.0523895f,-0.0551641f,-0.0150302f,-0.0748717f, 0.0581441f, 0.0943143f, 0.0400356f,-0.0625982f, 0.0341921f,-0.0445538f, 0.0065219f,-0.1181528f, 0.0954184f },
        { -0.0609712f,-0.0121179f,-0.0272727f,-0.0828801f, 0.0137973f,-0.0655757f, 0.0035573f, 0.0208266f,-0.0051345f, 0.0482187f,-0.0674160f,-0.0981740f, 0.0724218f,-0.0622279f,-0.0174999f, 0.0184392f,-0.0372984f, 0.1568839f,-0.0447664f, 0.0770558f, 0.0562596f,-0.0972686f,-0.0391029f, 0.1476205f,-0.0296620f, 0.0327555f, 0.1233535f,-0.0509709f, 0.0626618f,-0.0282917f, 0.0899809f,-0.1380703f, 0.1510681f, 0.0456539f, 0.0464485f, 0.1239683f,-0.0701334f, 0.0846742f,-0.0935745f,-0.1037018f, 0.0276835f,-0.1019966f, 0.0520151f, 0.1146006f,-0.1200089f, 0.1821251f,-0.0389130f,-0.0021533f, 0.0923420f, 0.0212564f, 0.0763571f,-0.0780419f, 0.0567115f,-0.0845745f, 0.0265120f,-0.0591404f,-0.0746455f, 0.0075055f, 0.0209833f,-0.0186935f, 0.0194489f, 0.1087508f, 0.1249215f,-0.0266156f },
    };
    float bias_4[64] = {
         0.4664577f,-0.5551208f,-0.0162787f, 0.0150383f, 0.4826592f, 0.2597400f,-0.0702688f,-0.5580341f, 0.3588216f, 0.1112970f, 0.4994198f,-0.2658881f,-0.2564282f, 0.0883843f,-0.3748554f,-0.6436708f,-0.1488260f, 0.4829974f,-0.2251324f,-0.4081181f, 0.5466865f, 0.2373629f,-0.1645914f,-0.2267358f,-0.0114622f,-0.5970195f,-0.8834438f,-0.2449097f, 0.0221372f, 0.4484177f,-0.0536536f, 0.3972805f,-0.0975189f, 0.0618082f, 0.5691345f,-0.4577560f, 0.5603333f,-0.6372584f,-0.0369251f,-0.0303173f,-0.2343595f, 0.5252686f, 0.0503116f,-0.0724422f,-0.5510982f,-0.4534760f,-0.0434509f, 0.3431633f,-0.3272564f,-0.0762119f,-0.4382246f, 0.2323818f,-0.4850668f,-0.4390827f, 0.1163942f, 0.5280709f, 0.5797313f, 0.1336183f, 0.0033320f, 0.5335507f,-0.5604826f, 0.4907384f, 0.4602018f,-0.5380976f
    };
    float wgtT_4[64][64] = {
        {  0.1295885f,-0.2505541f,-0.0822192f,-0.1168330f, 0.0973398f, 0.1503297f,-0.0463562f,-0.1762257f, 0.0179754f, 0.0716930f,-0.0091565f,-0.1495158f,-0.0387597f, 0.1134950f,-0.1026673f,-0.1230743f,-0.0818957f,-0.0435654f,-0.1386511f,-0.1495742f, 0.2535193f, 0.0212711f, 0.0116595f,-0.1202141f, 0.0388988f,-0.1485406f,-0.3211099f,-0.1489540f, 0.0613839f, 0.0136189f, 0.1229145f,-0.0568159f,-0.0854839f, 0.0710236f, 0.1191667f,-0.1701333f, 0.0272343f, 0.0422229f,-0.0671241f,-0.0974690f,-0.0044889f,-0.1293309f, 0.0513271f,-0.0193554f,-0.2357203f,-0.0299715f, 0.1346360f, 0.0653175f,-0.1522974f, 0.0522994f, 0.0038986f, 0.0182941f,-0.1432870f,-0.2092866f,-0.0488152f, 0.0794016f, 0.0221351f,-0.0858515f, 0.0504133f,-0.0439232f,-0.1187752f, 0.1375017f,-0.0291682f,-0.0591014f },
        {  0.0078050f,-0.1739006f, 0.0772933f,-0.0101405f, 0.1540260f,-0.1526244f,-0.0072695f,-0.1216311f, 0.1592978f,-0.0219053f,-0.0621786f,-0.0119511f,-0.1412085f,-0.0018969f, 0.0131801f,-0.0920289f,-0.1072363f, 0.1906093f,-0.1649739f, 0.0078046f, 0.2919456f, 0.0171501f,-0.1443779f,-0.1721453f,-0.0573419f, 0.0561287f,-0.1110767f, 0.0663826f, 0.4813868f, 0.0547185f, 0.0516735f, 0.0099755f,-0.0882026f, 0.0624701f, 0.2102915f,-0.0511199f, 0.0100524f, 0.0319749f, 0.1001154f,-0.0871774f,-0.0916253f,-0.1266931f,-0.0446736f,-0.1240051f,-0.0367748f,-0.1144947f,-0.0904673f, 0.0813545f,-0.0814341f, 0.0151239f, 0.0235833f, 0.1209060f,-0.0659403f,-0.0155481f, 0.1217028f, 0.0689672f, 0.0809399f, 0.1555633f,-0.1111020f,-0.0014522f,-0.0953634f, 0.1087341f, 0.1671269f,-0.0497540f },
        { -0.0192799f,-0.1248553f, 0.0315869f,-0.0347240f, 0.1014142f,-0.0406803f,-0.0863323f,-0.0860627f,-0.2560321f,-0.0665331f,-0.1249495f,-0.0996653f,-0.1343666f, 0.0440270f,-0.0874204f, 0.0198896f,-0.0612226f,-0.0678487f,-0.1571568f,-0.0152053f,-0.2014276f,-0.0481610f, 0.0923728f, 0.0209715f, 0.0494063f,-0.1046939f, 0.0639866f,-0.0822895f, 0.0400905f,-0.0112651f,-0.0107769f, 0.0144962f,-0.0233271f, 0.0647766f,-0.1185561f,-0.0104245f, 0.0116915f, 0.0231925f,-0.0515402f,-0.0863539f,-0.0695191f,-0.0202072f,-0.0321835f,-0.0834684f, 0.0248165f, 0.1046196f,-0.0489819f, 0.0854635f,-0.0958618f, 0.0716177f, 0.0757534f, 0.0938535f, 0.1204182f,-0.0101930f,-0.0514447f, 0.1044122f, 0.0798263f,-0.0474011f, 0.0857093f, 0.0402697f, 0.1033638f,-0.0559567f, 0.1099728f,-0.0000220f },
        { -0.0842157f, 0.2511080f,-0.0435841f,-0.0891610f,-0.1094098f,-0.1376955f,-0.0424670f, 0.1598956f,-0.1935068f,-0.0710699f,-0.1114307f, 0.1387835f, 0.0824627f,-0.0186441f, 0.2724356f,-0.0710094f, 0.0939280f,-0.0314827f, 0.0380526f, 0.0671213f,-0.2883567f,-0.0247831f, 0.1059741f, 0.1015152f,-0.0873931f,-0.0887564f, 0.3215775f,-0.0187764f,-0.4134469f,-0.0223226f,-0.0324389f, 0.0060145f, 0.0977680f, 0.0438714f,-0.3067364f, 0.2432268f,-0.0439734f, 0.0334675f,-0.0025724f,-0.1124791f, 0.0536875f, 0.0673701f,-0.0555403f, 0.0923246f, 0.1910468f, 0.1239032f,-0.2295917f,-0.0305701f,-0.0426017f, 0.0391680f, 0.1229086f, 0.0595096f, 0.1038368f,-0.0138211f,-0.0029389f,-0.1163442f,-0.1044169f,-0.1061837f,-0.0663563f, 0.0328269f, 0.0072765f,-0.0630694f, 0.0451852f,-0.0502478f },
        { -0.0479129f,-0.2334724f,-0.0140513f, 0.0328495f, 0.0233224f, 0.0147005f,-0.0739062f,-0.1868779f,-0.1370055f, 0.0020954f, 0.0609022f,-0.1129616f,-0.1107758f, 0.0869611f,-0.2122646f,-0.1148316f,-0.0954467f, 0.0155294f,-0.1711536f,-0.2669968f, 0.1460477f, 0.0759828f,-0.0769022f,-0.1927742f,-0.0202425f,-0.1433506f,-0.1815864f,-0.1921747f, 0.1204465f, 0.1367761f, 0.0794758f, 0.0727143f, 0.0841869f,-0.0123485f,-0.0653698f,-0.1294582f,-0.0246860f,-0.0070349f, 0.0941144f,-0.0824086f, 0.0308493f,-0.0932812f, 0.1192881f,-0.0617590f,-0.0697596f,-0.1033021f, 0.1113673f, 0.1290064f,-0.1981025f, 0.0343068f, 0.0015253f, 0.0974240f,-0.1164962f,-0.1600046f,-0.0038438f, 0.0788432f, 0.0209985f,-0.0540411f,-0.0875580f, 0.1865195f,-0.2080879f, 0.1491242f, 0.2453795f,-0.1010271f },
        {  0.0250585f,-0.2885362f, 0.1265287f,-0.0765430f, 0.2096225f, 0.1065305f,-0.0110440f,-0.0289347f, 0.0713746f,-0.0820402f, 0.1771560f,-0.0951053f,-0.1528339f,-0.0038625f,-0.0893419f,-0.0820510f, 0.0812548f, 0.1441017f,-0.0450080f,-0.1437011f, 0.1625573f,-0.0825652f,-0.1183273f,-0.0832262f,-0.0238698f, 0.0515944f,-0.3065698f,-0.1481362f,-0.0671780f, 0.0325340f, 0.0105309f, 0.1605903f,-0.0736788f, 0.1051834f, 0.1352239f,-0.2503801f, 0.1219029f, 0.0115669f,-0.0098227f, 0.0540619f, 0.0592990f,-0.0775103f, 0.0492995f, 0.0937051f,-0.0697596f,-0.0238565f,-0.0752822f,-0.0024319f,-0.0876214f,-0.1354375f,-0.0498575f, 0.1252906f,-0.1932741f,-0.1996790f, 0.1415705f, 0.0045742f, 0.1908810f, 0.1210676f, 0.0578110f, 0.1906009f,-0.1004709f, 0.1475008f, 0.1112589f, 0.0067486f },
        { -0.0682329f,-0.2042026f, 0.0337417f,-0.0672570f, 0.1777754f, 0.0180991f, 0.0280644f,-0.1493745f,-0.1136328f, 0.0459565f, 0.1433480f, 0.0284481f,-0.1629381f, 0.0543290f,-0.1281345f,-0.0612578f, 0.0626693f, 0.1646761f,-0.2008297f,-0.1129525f, 0.1324358f, 0.0666261f,-0.1159816f, 0.0042740f, 0.0398916f,-0.0835310f,-0.1036365f,-0.0599770f,-0.0293346f, 0.0229233f, 0.0559065f, 0.0905847f, 0.0616873f, 0.0599126f,-0.0618971f,-0.1076735f,-0.0806837f, 0.0815098f, 0.0484584f, 0.0870968f,-0.0132699f,-0.0611343f, 0.0731768f, 0.0962987f,-0.1106558f,-0.1890698f,-0.0923392f, 0.1538613f,-0.1441526f,-0.0093929f,-0.1980067f,-0.0206305f,-0.1208471f,-0.1482000f,-0.0319352f, 0.0355093f, 0.0706625f, 0.1081284f, 0.1209702f, 0.1114944f,-0.0701359f, 0.0833269f, 0.1868601f,-0.0167105f },
        {  0.1778138f,-0.1781330f,-0.0958787f,-0.0505141f, 0.0261995f,-0.1501484f,-0.0809767f,-0.0202193f, 0.4405795f, 0.0219468f, 0.1505285f,-0.1175514f,-0.2061779f, 0.0652778f,-0.1476627f, 0.0115784f,-0.0359423f, 0.1664065f,-0.2518885f,-0.0503748f, 0.4108635f, 0.0734030f,-0.0112740f,-0.1671825f, 0.0521641f,-0.0259585f,-0.2806983f,-0.1630403f, 0.3955720f, 0.2136093f, 0.0998178f, 0.0324137f,-0.0243047f, 0.0339974f, 0.2163019f,-0.0688231f, 0.0194017f,-0.1157978f,-0.0363358f,-0.0820839f,-0.1438213f,-0.0627734f, 0.1057082f,-0.0328535f,-0.2180451f,-0.0689108f,-0.1200185f, 0.0168542f, 0.0222590f, 0.0224127f,-0.0710128f, 0.0191690f,-0.0094270f,-0.0870881f, 0.1195941f, 0.1278443f, 0.1637576f,-0.0786609f, 0.0140140f,-0.0160690f,-0.2075664f, 0.1751307f,-0.0536887f,-0.1004701f },
        { -0.0594773f, 0.0087696f,-0.0388103f, 0.0973104f,-0.1437189f,-0.0990580f,-0.0674748f, 0.1520001f, 0.0883553f, 0.0915704f, 0.0884337f, 0.0749238f,-0.0457914f,-0.1372303f, 0.1536015f,-0.1004017f, 0.0592800f,-0.1557954f, 0.1417890f, 0.0375530f, 0.0085575f, 0.0612829f,-0.0166559f, 0.1031248f,-0.0485012f,-0.0520714f, 0.2143897f,-0.0623158f, 0.0317799f, 0.1578395f, 0.1051975f, 0.0328175f,-0.0250538f,-0.1104700f, 0.0061776f,-0.0078568f, 0.0429668f,-0.0464046f, 0.0527796f,-0.0232937f,-0.0427787f,-0.0798753f,-0.1321036f,-0.1112652f, 0.0807617f, 0.1177263f, 0.0433153f, 0.0392475f,-0.0330498f, 0.0850650f, 0.0072227f,-0.1093433f, 0.1341302f, 0.1204467f,-0.0847423f, 0.0048746f, 0.0120828f, 0.0789022f,-0.0491214f,-0.0071981f, 0.0648917f, 0.0013733f, 0.0108040f, 0.1276839f },
        {  0.0207509f, 0.0535259f,-0.1183477f, 0.0308643f,-0.0790797f,-0.1118194f, 0.2226169f,-0.0562476f, 0.0128308f, 0.0447772f, 0.0465034f,-0.0899252f, 0.0293652f,-0.0606998f,-0.0015778f, 0.0836256f,-0.0873106f,-0.0703282f,-0.0027767f,-0.0543745f,-0.0229015f,-0.1436762f,-0.0621559f, 0.0674813f,-0.0002406f, 0.0591700f,-0.0373241f, 0.0361952f, 0.4485095f, 0.0114716f,-0.0401164f,-0.0100468f,-0.1904885f,-0.1739439f,-0.1019663f,-0.0752914f, 0.0564143f,-0.0465964f, 0.0287802f, 0.1662054f, 0.0909773f,-0.1405354f, 0.0144712f,-0.0035523f,-0.1807813f,-0.1260859f, 0.3290491f,-0.0414819f,-0.0654344f, 0.0320794f, 0.0741511f,-0.1215311f, 0.1050950f,-0.0933444f,-0.0691349f, 0.0440595f, 0.0748115f,-0.0631108f,-0.0599503f,-0.0506220f, 0.0048385f,-0.0373986f,-0.0437625f, 0.0742100f },
        {  0.0581537f, 0.2210750f,-0.0144836f, 0.0558896f,-0.2326483f, 0.0207681f, 0.0175738f, 0.2391272f,-0.5512682f,-0.0239383f, 0.0026499f, 0.1001752f, 0.2175443f, 0.0787775f, 0.3812800f, 0.0060194f, 0.1381604f,-0.3865081f, 0.0728752f, 0.2979395f,-0.5839301f,-0.2796826f, 0.0575382f, 0.4343938f,-0.0646321f,-0.0011527f, 0.5442072f, 0.1096819f,-0.6025541f,-0.1795207f, 0.1102226f,-0.0144217f,-0.0617664f,-0.1144265f,-0.4619997f, 0.2281103f, 0.0001083f, 0.0070839f,-0.0330772f,-0.0377557f,-0.1017144f,-0.3098569f,-0.0023696f,-0.0748831f, 0.3119141f, 0.0728583f,-0.0452371f,-0.1561792f, 0.0965360f, 0.0275599f, 0.0568229f,-0.3406749f, 0.0405123f, 0.2527084f,-0.2809025f,-0.1308117f,-0.0786540f,-0.2153152f, 0.1100587f,-0.1698709f, 0.0753603f,-0.0097727f,-0.2727268f, 0.0524501f },
        { -0.0492222f, 0.0760854f,-0.0588847f, 0.0847978f,-0.0870102f,-0.1851761f,-0.0566721f, 0.0514229f, 0.0628294f, 0.0963735f, 0.0131314f,-0.1082631f,-0.1263904f, 0.0982266f,-0.1249623f, 0.0985291f,-0.0615534f, 0.0581941f, 0.0376708f,-0.0495382f, 0.2437062f,-0.1366863f, 0.0053913f,-0.1563139f,-0.0106183f, 0.0720388f,-0.2334840f, 0.0908153f, 0.7697776f, 0.0322442f, 0.1110136f, 0.0504379f, 0.0483472f,-0.0283408f, 0.1818592f,-0.1570322f,-0.1501869f, 0.0570446f, 0.0408329f, 0.0109764f, 0.0533978f,-0.1322116f,-0.0082979f,-0.0950742f,-0.0523977f, 0.0090735f, 0.0532714f,-0.0111147f, 0.0163224f,-0.0390336f,-0.0615342f, 0.2279472f,-0.0029059f,-0.0257500f, 0.0244991f, 0.0045636f,-0.0122275f, 0.1062522f,-0.1064855f, 0.0383222f, 0.0644837f,-0.0175057f, 0.1458626f, 0.0856266f },
        { -0.0126715f, 0.1283739f, 0.0333188f, 0.0828413f,-0.1527359f, 0.0800693f,-0.0599888f,-0.0349827f,-0.4658500f,-0.0219702f,-0.0163187f, 0.0873654f, 0.0986183f, 0.0164991f, 0.2274715f,-0.0038251f, 0.1292308f,-0.1539974f,-0.1570684f,-0.0877789f,-0.2685066f,-0.2443062f, 0.0723495f, 0.0417121f,-0.0945092f, 0.0705466f, 0.1053022f, 0.0127545f,-0.4389685f,-0.0054339f,-0.0208740f,-0.0666323f,-0.0846470f, 0.0802488f,-0.2940823f, 0.0701629f,-0.0931954f, 0.0170095f,-0.1012602f, 0.0535058f, 0.1679844f,-0.2238601f,-0.0575742f, 0.0715668f, 0.0719451f, 0.0521019f,-0.0124593f, 0.0307886f,-0.0474981f, 0.0779362f,-0.0705989f,-0.3338652f,-0.0619673f,-0.0442424f, 0.0465230f, 0.0677393f,-0.1206609f,-0.0496390f, 0.0912844f,-0.0633585f,-0.0263273f,-0.1509369f,-0.1565780f, 0.0690130f },
        { -0.0102718f,-0.1881717f, 0.0356881f,-0.0351657f, 0.0392254f, 0.0328652f,-0.1075392f,-0.1455318f,-0.0390133f, 0.0192773f,-0.0663859f, 0.0148322f,-0.2260532f,-0.0260438f,-0.0355502f,-0.0743604f, 0.0743376f,-0.0468640f,-0.0279671f, 0.0080279f, 0.0336646f,-0.0765526f, 0.0579151f,-0.0368133f, 0.0743413f, 0.0118681f,-0.2016212f, 0.0218611f, 0.2459190f,-0.0397751f, 0.0360041f, 0.0833314f,-0.0470490f, 0.1054583f,-0.0339598f,-0.1008940f,-0.0244679f, 0.0207551f, 0.1462821f,-0.0372375f,-0.0292276f,-0.0347237f, 0.0425307f,-0.0944574f,-0.2363714f,-0.0035017f, 0.0990712f,-0.0755193f,-0.0783079f, 0.0891811f,-0.0753814f,-0.1396246f,-0.0648118f,-0.0808063f,-0.1055238f,-0.0613643f,-0.0400014f, 0.0702528f, 0.0776253f, 0.0822075f,-0.0727177f, 0.0686779f,-0.0702327f, 0.0014055f },
        { -0.0544371f,-0.0629200f,-0.1060764f,-0.0827244f, 0.0572528f, 0.1779463f, 0.0102166f,-0.0765809f,-0.0163529f, 0.0616212f,-0.1028300f, 0.0358981f, 0.0622423f, 0.0943292f, 0.1739117f, 0.0907455f, 0.0343888f,-0.0901087f, 0.0104766f, 0.0227025f,-0.1665530f,-0.1875127f, 0.0163889f, 0.0844524f, 0.1088074f,-0.1176847f, 0.0303638f,-0.0213684f,-0.7102072f,-0.0234830f,-0.1045880f,-0.1106177f,-0.0932269f, 0.0577057f, 0.1179327f,-0.0260415f,-0.0462656f,-0.0430762f,-0.0722064f,-0.0537428f, 0.0334132f,-0.0965322f,-0.0662426f,-0.0338060f, 0.0076390f,-0.1369230f, 0.0761482f, 0.0019230f, 0.0252010f, 0.1146396f, 0.0861608f,-0.0014173f,-0.1525362f,-0.0483817f, 0.0129994f,-0.1359498f,-0.0617559f, 0.0808301f, 0.0668406f,-0.1030105f, 0.1045863f, 0.0886559f,-0.1354620f, 0.0507968f },
        { -0.2300651f, 0.4260578f,-0.0174353f, 0.2335852f,-0.5225959f,-0.2744982f,-0.1795481f, 0.2238245f, 0.0899657f, 0.1300049f,-0.2799588f, 0.1803229f, 0.4466612f,-0.1367466f, 0.5144358f, 0.2424430f, 0.2266361f,-0.4058422f, 0.3564033f, 0.4659935f, 0.1185100f,-0.1658337f, 0.4739208f, 0.2547908f,-0.2837939f, 0.1938174f, 0.3644170f, 0.2547641f, 0.0870705f,-0.2976973f,-0.1274489f,-0.3440939f,-0.1206574f,-0.1789700f, 0.0344369f, 0.2970460f,-0.1330738f, 0.1960179f,-0.0571363f,-0.1940173f, 0.2037812f,-0.1718322f, 0.0582243f, 0.0877286f, 0.4904934f, 0.3751584f,-0.1415562f,-0.3975897f, 0.3470782f, 0.1779214f, 0.3601953f,-0.5987826f, 0.3347454f, 0.3275839f,-0.4106476f,-0.1970013f,-0.2905115f,-0.2137243f,-0.0177884f,-0.4114957f, 0.2287872f,-0.2163304f,-0.3076562f, 0.2415443f },
        {  0.0272040f,-0.2343532f, 0.0969298f,-0.0440340f, 0.1661746f, 0.2068179f,-0.0556373f,-0.0929054f,-0.1064943f,-0.1100275f, 0.0371310f,-0.1262284f, 0.0286069f, 0.0156766f,-0.1269291f,-0.0940817f, 0.0838336f, 0.0856869f,-0.0330511f,-0.1969199f, 0.1029214f,-0.1385856f, 0.0329991f,-0.0489611f, 0.0543691f, 0.0270414f,-0.2877378f,-0.0299608f,-0.1146028f,-0.0477867f, 0.0112032f, 0.1358090f, 0.0611321f, 0.0700685f, 0.1477942f,-0.0072969f, 0.0796024f,-0.0904170f,-0.0561819f,-0.1065422f, 0.0875848f, 0.0684131f, 0.0035695f,-0.0057091f,-0.1436130f,-0.0424842f, 0.0001730f, 0.0151257f,-0.0548083f, 0.0448767f,-0.1164732f, 0.0949673f,-0.1112048f,-0.2007691f, 0.0781186f,-0.0673031f, 0.1189146f,-0.0606294f, 0.0719897f, 0.0831830f,-0.0965057f,-0.0670989f, 0.1105493f,-0.0571883f },
        { -0.0187495f,-0.6784046f,-0.0175702f, 0.1237371f,-0.2318832f,-0.0588637f,-0.0777391f,-0.3675900f, 1.0601342f, 0.0004460f, 0.1085042f,-0.3020362f,-0.8091501f, 0.1165834f,-1.2796879f,-0.0922187f,-0.2453147f,-0.1638220f,-0.6530128f,-0.5947798f, 0.9727501f, 0.5952732f,-0.4387843f,-0.8530126f, 0.1038867f, 0.0309661f,-1.0963637f, 0.0910968f, 1.0091186f, 0.2154043f,-0.0978964f,-0.0507022f, 0.1029514f, 0.0398483f, 0.8392975f,-0.8455929f,-0.0346358f,-0.0178926f,-0.0411977f, 0.0861446f,-0.1140938f, 0.5833433f, 0.0228711f, 0.0950418f,-0.7653078f,-0.3400729f, 0.3489794f,-0.1022091f,-0.3274066f, 0.0166293f,-0.2881653f,-0.5347716f,-0.2729478f,-0.3619171f,-0.0699045f, 0.0225888f, 0.1579653f,-0.1144109f, 0.0621744f, 0.0455130f,-0.1091618f, 0.1122385f,-0.1392029f,-0.3411172f },
        { -0.0600528f,-0.2304908f,-0.0381384f, 0.0856139f, 0.1982729f,-0.0612511f,-0.1215842f,-0.1595663f, 0.1409903f, 0.0338206f,-0.0100411f,-0.1618922f,-0.0036871f, 0.0775157f,-0.0700623f, 0.0655948f,-0.1276771f, 0.2332885f,-0.1294247f,-0.2054723f, 0.0978917f,-0.1019037f,-0.0320114f,-0.1688985f,-0.0330117f,-0.0737150f,-0.1327979f,-0.0272988f, 0.0400556f, 0.0348405f, 0.0543708f, 0.1065110f,-0.0601912f,-0.0289482f, 0.0159330f,-0.0627444f,-0.0482800f,-0.1081340f, 0.0212886f,-0.1462321f,-0.0383328f,-0.0526827f, 0.1091285f,-0.0319870f,-0.2317537f,-0.1041917f,-0.0158468f, 0.2298436f,-0.0993859f,-0.0875763f,-0.0341332f, 0.1194336f,-0.0614343f,-0.1910912f,-0.0614013f,-0.0096492f, 0.0528339f, 0.0722967f,-0.0597475f,-0.0185754f,-0.1238877f, 0.0408944f, 0.1367376f,-0.0723797f },
        { -0.0918247f,-0.1049325f, 0.0491871f, 0.0343898f, 0.1183108f,-0.0118942f, 0.0510250f, 0.0311038f,-0.1742324f, 0.1121146f, 0.0930338f, 0.0038364f, 0.0158849f, 0.1031342f,-0.0483227f, 0.0182838f,-0.1106512f,-0.0750839f,-0.0298667f,-0.1289736f,-0.0111906f, 0.0435125f,-0.0626261f, 0.0494202f,-0.0059768f,-0.0991428f, 0.0010226f, 0.1143016f, 0.0620340f, 0.0691775f, 0.0247172f, 0.0707212f, 0.1133733f, 0.0161348f,-0.1886561f,-0.0355394f, 0.0817028f,-0.0398015f, 0.0562627f, 0.1130014f,-0.0035745f,-0.1093776f, 0.0200877f, 0.0631069f,-0.0997146f, 0.0720798f,-0.1240039f, 0.1100187f, 0.0697631f,-0.0542149f, 0.0650699f, 0.0446005f, 0.0175762f, 0.0404523f,-0.0593309f,-0.0248721f, 0.1018814f, 0.0441274f,-0.0869184f, 0.0333156f,-0.1177783f,-0.0576907f,-0.0833897f, 0.0388625f },
        {  0.1164579f, 0.2112229f, 0.1022411f,-0.0021164f,-0.0797531f,-0.0700699f, 0.0888958f, 0.1564005f,-0.2576890f,-0.0223279f, 0.1207874f, 0.0237506f, 0.0249754f,-0.0122682f, 0.0840112f,-0.1037303f, 0.0466983f, 0.0560855f, 0.0830240f,-0.0109931f,-0.4151756f, 0.1391358f, 0.0711947f,-0.0684849f,-0.0380456f,-0.0232820f, 0.3249732f,-0.0329739f,-0.2607006f,-0.0399383f, 0.0288633f, 0.1070147f, 0.0283038f,-0.0399149f,-0.2020171f, 0.0539537f, 0.1003243f,-0.1251998f,-0.0546836f, 0.0162753f,-0.0809219f, 0.1928231f, 0.0674306f, 0.0905617f, 0.0142728f, 0.0095549f, 0.0532835f, 0.1026776f, 0.1516150f,-0.0163034f, 0.0990089f, 0.1774649f, 0.0818325f, 0.0900118f,-0.0662816f, 0.0559446f, 0.0774926f,-0.0957352f,-0.0785709f,-0.0281308f, 0.0936747f,-0.0120548f,-0.0917123f, 0.1776280f },
        {  0.0960997f,-0.1794947f,-0.0169444f,-0.0758779f, 0.0556178f,-0.0053653f, 0.0524918f,-0.0737882f, 0.3010501f, 0.0097952f, 0.1316047f,-0.1248091f,-0.1644477f,-0.0232677f,-0.1921050f, 0.0696540f,-0.0900278f, 0.0325107f, 0.0333109f,-0.0365897f, 0.2622922f, 0.0791537f,-0.1033521f,-0.1090859f,-0.1160638f, 0.0351348f,-0.2913484f, 0.0387041f, 0.4544910f, 0.0154285f,-0.0001963f, 0.0986780f,-0.0984514f, 0.0512359f, 0.1856123f,-0.1336511f,-0.0286551f,-0.0788791f,-0.0545099f, 0.0698400f,-0.1644800f, 0.0625038f,-0.0332796f,-0.1206914f, 0.0044823f,-0.1244671f,-0.1286817f,-0.0636277f, 0.0247575f,-0.0990506f,-0.0792641f, 0.0530646f,-0.1330528f,-0.1603853f, 0.0437798f,-0.0491485f, 0.0256272f, 0.1088951f, 0.0798315f,-0.0034311f,-0.0288228f, 0.1377098f,-0.0189785f,-0.0366499f },
        { -0.0013449f,-0.0033502f, 0.1111520f, 0.0473949f, 0.1092317f,-0.0394315f,-0.0710463f, 0.0732633f, 0.0113507f, 0.0541644f, 0.0280235f, 0.1041973f,-0.0637581f,-0.0637416f,-0.0539431f, 0.0509330f,-0.0183901f,-0.0929017f,-0.0172865f,-0.0055220f, 0.1855209f,-0.1249284f, 0.0254077f, 0.0317860f, 0.0370546f, 0.0408063f,-0.0406385f,-0.0355212f, 0.1035961f, 0.0066532f, 0.1040694f,-0.0227978f, 0.0835822f,-0.0338059f, 0.1015128f, 0.0517643f,-0.1224199f,-0.0745517f, 0.0693654f, 0.0302973f, 0.0765987f, 0.0158689f, 0.0841754f,-0.0642985f,-0.1137488f, 0.0617866f,-0.0188915f, 0.0225196f, 0.0361862f, 0.0621280f,-0.0938012f, 0.0713148f,-0.0853710f, 0.0004890f, 0.0963794f,-0.0114580f, 0.0554444f,-0.0254879f, 0.0086105f,-0.0119916f, 0.0286124f, 0.0933252f,-0.0497624f, 0.0061202f },
        { -0.0269685f, 0.1239932f,-0.0034602f, 0.0171085f, 0.0160910f, 0.0552333f, 0.0613145f, 0.0344374f,-0.2476309f,-0.0737390f,-0.1080773f, 0.1487339f, 0.1794120f,-0.0507776f, 0.2312395f,-0.0412269f, 0.0490378f, 0.0530995f, 0.1686204f, 0.1054562f,-0.1054366f,-0.0824496f, 0.1531931f, 0.0523694f,-0.0841639f, 0.1383637f, 0.0386614f, 0.0461319f,-0.3484375f,-0.2141385f,-0.0415321f,-0.0197205f,-0.0452856f, 0.0689530f,-0.1822250f, 0.1098194f, 0.0804985f, 0.0533207f,-0.0602998f, 0.0069032f,-0.0215860f, 0.0489294f, 0.0141529f,-0.0873318f, 0.0294387f, 0.0091919f,-0.1603066f,-0.0662495f,-0.0122383f,-0.0616919f, 0.1548685f,-0.1349359f, 0.0713984f, 0.0606379f,-0.0133036f,-0.1497116f,-0.0188662f,-0.0371527f, 0.1053546f,-0.0744209f,-0.0011338f, 0.0545520f,-0.1092775f, 0.0510778f },
        { -0.0540469f,-0.2322300f,-0.0586910f, 0.0257929f, 0.0924161f,-0.0172314f, 0.0602006f,-0.1499753f, 0.1691508f,-0.0777465f, 0.1146418f,-0.1318834f,-0.0916563f, 0.0369449f,-0.0613799f,-0.1609519f,-0.0202433f, 0.1484633f,-0.0889292f,-0.0169943f, 0.2702675f, 0.1385287f,-0.1239734f,-0.0215334f, 0.0537208f,-0.0482809f,-0.2408418f,-0.0186159f, 0.2098536f, 0.0260795f, 0.1118559f, 0.0350275f, 0.0064493f, 0.1031417f, 0.2770365f,-0.1545778f,-0.0545720f,-0.0450186f,-0.0979040f,-0.1233556f,-0.0014771f,-0.0863219f, 0.1058615f, 0.1116677f,-0.1058324f,-0.0012946f,-0.0027455f,-0.0087790f,-0.1072732f, 0.0854717f, 0.0149259f, 0.0388955f, 0.0006902f,-0.0996280f, 0.0257710f,-0.0217655f, 0.1673254f, 0.0345334f,-0.0155068f, 0.0590954f, 0.0211080f, 0.0170279f, 0.0606725f,-0.0085744f },
        {  0.1607005f,-0.3350524f, 0.0084317f,-0.4216389f, 0.4883194f, 0.1400504f, 0.0963644f,-0.4363091f, 0.3640262f,-0.4963523f, 0.2776558f,-0.3251874f,-0.6423237f,-0.0808641f,-0.2469500f,-0.1516161f,-0.2713413f, 0.4942516f,-0.7969019f,-0.5909838f, 0.3032716f, 0.4219666f,-0.3840984f,-0.2746838f, 0.1691626f,-0.3921677f,-0.3593525f,-0.3416929f, 1.2369858f, 0.4056506f, 0.0501854f, 0.2875628f,-0.0199465f,-0.1369432f, 0.4119747f,-0.5495288f, 0.3547611f,-0.3851765f,-0.0383682f,-0.4575679f,-0.3228776f, 0.3452871f,-0.0239884f,-0.1623316f,-0.5390897f,-0.3937321f, 0.2498108f, 0.4853582f,-0.4935965f,-0.4265066f,-0.2637622f, 0.7984774f,-0.3822063f,-0.2987036f, 0.3984514f, 0.4086949f, 0.1976342f, 0.4085273f,-0.0703890f, 0.4188373f,-0.3663599f, 0.2913249f, 0.5373990f,-0.2590465f },
        { -0.1383757f, 0.2185043f, 0.0780838f, 0.0515448f,-0.0373559f,-0.0942705f, 0.0508866f, 0.0388285f,-0.1764743f, 0.0533161f,-0.1243673f, 0.0627952f, 0.2237338f,-0.1320877f, 0.2163952f, 0.1413646f, 0.0412043f,-0.0193239f, 0.1337055f, 0.1912974f,-0.4681918f, 0.0604373f, 0.1887908f, 0.2169976f, 0.1138370f, 0.0808293f, 0.4774579f, 0.0624682f,-0.3203643f, 0.0895336f,-0.0639362f, 0.0871193f,-0.0540318f, 0.0398810f,-0.3258615f, 0.3003769f,-0.0559514f, 0.1234453f, 0.0826383f,-0.0319681f,-0.0092943f, 0.0636241f,-0.0012206f,-0.0346456f, 0.1082746f, 0.1160381f,-0.0365177f,-0.0652951f, 0.1648369f, 0.0756201f, 0.1611108f,-0.0666600f, 0.0972197f, 0.2121178f, 0.0192825f,-0.0648571f,-0.0707864f,-0.0888683f, 0.0470001f, 0.0400954f, 0.1384664f, 0.0012690f,-0.0817089f, 0.0132669f },
        { -0.0397059f, 0.0369745f,-0.0867567f,-0.0742647f, 0.0711226f, 0.1937447f, 0.0278295f,-0.1000987f,-0.3303982f,-0.0821558f, 0.0024254f, 0.0224952f,-0.0750298f,-0.0232020f, 0.1165261f,-0.0520487f, 0.0679656f, 0.0472169f,-0.0157667f, 0.0617403f,-0.4818368f,-0.0385117f,-0.0975687f,-0.0257717f, 0.1044445f, 0.0324812f, 0.2453607f,-0.0361696f,-0.2102594f,-0.0958267f, 0.0014034f,-0.0572674f, 0.0864146f,-0.0726441f,-0.2813633f, 0.1204321f, 0.1104963f,-0.0056089f, 0.0177657f, 0.0109009f, 0.0149066f,-0.0074526f, 0.0958412f, 0.0670999f, 0.1084519f, 0.0986052f,-0.1832400f, 0.0378033f, 0.0861800f,-0.1072399f, 0.0990339f, 0.0395508f, 0.1136909f, 0.0511593f,-0.0334559f,-0.0911141f,-0.0063239f, 0.0460526f,-0.0440846f,-0.1056652f,-0.0253209f,-0.0444732f, 0.0029789f, 0.1392129f },
        {  0.0492936f, 0.1224196f, 0.0222847f,-0.0591429f, 0.1104505f,-0.0696012f,-0.0638599f, 0.0807405f,-0.0062590f, 0.1156532f, 0.1263928f, 0.0570189f, 0.0604037f, 0.0773123f, 0.1168122f,-0.1132739f,-0.0943099f,-0.0473418f,-0.0406386f, 0.0227086f,-0.0451620f, 0.0433319f, 0.0369612f, 0.0040993f,-0.0149590f,-0.1340091f,-0.0673888f,-0.0348663f, 0.0481222f, 0.0986649f,-0.1024644f, 0.1250412f, 0.0106661f,-0.0642084f, 0.0485585f,-0.0462971f, 0.0989058f,-0.0531358f,-0.0582397f,-0.0463454f,-0.1385900f, 0.1446872f, 0.0463055f, 0.0627439f, 0.0340393f, 0.1572455f, 0.0118310f, 0.0977960f, 0.0421014f,-0.1088422f, 0.1579668f, 0.0527870f, 0.0416379f, 0.0811694f, 0.1089466f, 0.1383339f,-0.0796087f, 0.0627926f, 0.0831520f, 0.1160963f, 0.1221411f, 0.0117630f, 0.0992730f, 0.1409419f },
        {  0.0090687f,-0.1980601f, 0.0585126f,-0.1561409f, 0.2732196f, 0.1701153f, 0.0644393f,-0.0440962f,-0.0040256f,-0.1505830f,-0.0333179f,-0.2034233f,-0.0707407f, 0.0026903f,-0.2022376f,-0.0091113f,-0.1430040f, 0.1116934f,-0.0185160f,-0.1989922f, 0.1296271f, 0.0413413f,-0.1736125f,-0.1395419f,-0.0101266f, 0.0601382f,-0.2779360f,-0.0231451f, 0.1878154f, 0.1690289f,-0.0066642f, 0.1926533f, 0.0985348f, 0.1075424f, 0.1623898f,-0.3090667f, 0.0686018f,-0.0627362f,-0.0957823f,-0.0084185f, 0.0100600f, 0.1415799f, 0.0782518f,-0.0719210f,-0.3055184f,-0.0234826f, 0.0551087f, 0.2495114f,-0.0578234f,-0.0675414f,-0.0409482f, 0.1508695f,-0.1495745f,-0.1723035f, 0.0396232f, 0.1534721f, 0.0362227f,-0.0131271f,-0.1055461f, 0.1045651f,-0.2100129f, 0.1778042f, 0.1001836f,-0.1153992f },
        { -0.0392566f,-0.2103431f, 0.0191177f, 0.0425720f, 0.1100803f, 0.1714855f,-0.1154385f,-0.0976529f, 0.1211283f, 0.0370132f,-0.0514034f,-0.1880911f,-0.0295519f,-0.1076024f,-0.1803402f,-0.1282335f,-0.1186352f, 0.0615347f,-0.0450796f,-0.1984389f, 0.0917483f,-0.0860082f, 0.0055648f,-0.1038519f,-0.0566759f,-0.0201340f,-0.3271569f, 0.0640335f, 0.1387808f, 0.0690900f,-0.0213594f, 0.0718793f,-0.1063667f,-0.0890632f, 0.2225392f,-0.2803314f, 0.0380547f,-0.1140254f,-0.0770066f,-0.1054569f,-0.0104134f,-0.0730253f, 0.0356017f,-0.0071225f,-0.1984465f,-0.1496859f, 0.0367749f,-0.0525228f,-0.1085572f,-0.0367779f,-0.0917055f,-0.1114728f,-0.1583690f,-0.1541521f, 0.0153203f, 0.0189972f, 0.1062166f,-0.0021928f, 0.0562469f,-0.0031245f,-0.1969910f,-0.0525450f, 0.1407559f,-0.1803419f },
        { -0.0373637f, 0.1107135f,-0.1033477f, 0.1174080f,-0.0780364f,-0.1262430f, 0.0603214f, 0.1415835f, 0.1415313f,-0.0317893f,-0.0636975f, 0.1595749f, 0.1145356f,-0.0445131f, 0.0754810f,-0.0048717f, 0.0762712f,-0.1591261f, 0.1156421f, 0.0913476f, 0.0365050f, 0.0786014f,-0.0090443f, 0.0249435f,-0.0146517f,-0.0702311f, 0.1390334f, 0.1240277f, 0.1257167f,-0.0115753f,-0.0670766f,-0.1377601f,-0.0077395f,-0.1091746f,-0.0969529f, 0.1693386f, 0.0350682f, 0.1521967f,-0.0606139f, 0.0084539f,-0.1195982f,-0.0785016f, 0.0766348f,-0.0381249f, 0.2240829f, 0.0617282f, 0.0084872f,-0.0003670f, 0.0551292f, 0.1235102f, 0.0338910f,-0.1132764f, 0.1733694f, 0.0818417f,-0.0724894f, 0.0095039f, 0.0457841f, 0.0251231f,-0.1399403f, 0.0520621f, 0.0978103f,-0.1284183f,-0.0244818f, 0.2007169f },
        {  0.0084062f, 0.0071944f, 0.0209321f, 0.1133728f, 0.0963292f, 0.0462932f, 0.0230329f, 0.1235245f,-0.2304401f,-0.0941419f,-0.0546202f, 0.0755186f,-0.0276987f, 0.1082883f,-0.0031785f,-0.0436769f,-0.0833648f,-0.0469584f, 0.0129589f, 0.0433305f,-0.2376170f,-0.0871473f, 0.0981948f,-0.0625942f, 0.1146953f,-0.0025041f, 0.1350686f, 0.0018352f,-0.0702435f, 0.0264456f, 0.0450410f, 0.0699868f, 0.0782755f,-0.0772479f,-0.0754948f, 0.0075263f, 0.0137071f, 0.0815287f, 0.1191857f, 0.0442670f, 0.0609064f,-0.1099185f, 0.0880454f,-0.0190129f, 0.0792065f, 0.0490123f, 0.1693414f,-0.1171927f, 0.1063252f, 0.0228487f, 0.0555525f,-0.1901369f, 0.1279712f,-0.0201645f,-0.0129680f, 0.0324154f,-0.0222782f, 0.0178149f,-0.0266529f, 0.0929261f, 0.0955164f, 0.0853746f,-0.0090109f,-0.0218985f },
        { -0.0630914f,-0.1665796f,-0.0512806f,-0.0466241f,-0.0297013f,-0.0099360f,-0.0466369f,-0.1650086f, 0.1277626f, 0.0017478f,-0.1031552f,-0.1594208f,-0.0745327f,-0.0014603f,-0.0420800f, 0.0175782f, 0.0281099f, 0.0303191f, 0.0244203f,-0.0369820f, 0.4075433f,-0.1416546f, 0.0434366f,-0.1055873f,-0.0060222f,-0.0055507f,-0.2276332f, 0.0934054f, 0.2928978f,-0.0293074f, 0.0933476f,-0.0329957f, 0.0409658f, 0.0910506f, 0.2464956f,-0.2085583f, 0.0829860f, 0.1169390f,-0.0463201f, 0.0288307f,-0.0217655f,-0.1398274f,-0.0855056f,-0.1166835f,-0.1471124f,-0.1572465f, 0.1720773f,-0.0820567f, 0.0607577f, 0.0651954f,-0.1124782f,-0.0784398f,-0.1722494f, 0.0218674f,-0.0251801f,-0.0814652f,-0.0421740f,-0.0288022f, 0.0808064f, 0.0137469f,-0.0243996f,-0.1328377f,-0.0894146f, 0.0169061f },
        { -0.0170440f, 0.1132341f, 0.0386601f, 0.0585406f, 0.0689213f, 0.1387956f,-0.0151817f, 0.0357765f,-0.3039206f,-0.1710027f, 0.1131870f,-0.0657725f, 0.0914377f,-0.0333392f, 0.1284896f,-0.0554903f, 0.0560928f,-0.0380712f,-0.0783757f,-0.0159666f,-0.2327180f,-0.0602223f, 0.0047618f,-0.0421969f,-0.0856040f,-0.0895291f, 0.0228372f,-0.0688865f,-0.2568716f,-0.0624434f, 0.1301493f, 0.1021012f,-0.0134607f, 0.0073016f,-0.2395153f, 0.1966547f,-0.0337417f,-0.0866775f, 0.0932608f,-0.0926719f,-0.0332089f, 0.0511006f, 0.0259773f, 0.0564024f,-0.1186888f,-0.0865391f, 0.0295781f,-0.0006337f, 0.0469717f, 0.0289426f, 0.0250830f, 0.0233616f, 0.0918540f,-0.1169281f,-0.1110442f, 0.0151003f, 0.0175738f, 0.0681490f,-0.0019548f, 0.1446962f, 0.0689063f,-0.0431076f, 0.0963793f,-0.0191976f },
        {  0.1138951f,-0.1597238f, 0.0036222f, 0.1232013f, 0.1394266f, 0.0927681f,-0.0933580f,-0.1348917f, 0.0426259f, 0.0705790f, 0.1071279f,-0.0217152f, 0.0215377f, 0.0702428f,-0.2348508f,-0.0993940f,-0.0851447f, 0.1130981f,-0.0411499f,-0.2440803f,-0.0166987f, 0.1371679f,-0.0720341f,-0.0915725f, 0.0433889f, 0.0970391f,-0.2925193f,-0.0624038f, 0.0782512f, 0.0314377f, 0.0412079f,-0.0011594f, 0.0607388f, 0.0531910f, 0.1487281f,-0.2564834f, 0.0298890f,-0.0809319f, 0.0145288f, 0.0406582f,-0.0695237f, 0.0570409f,-0.0378564f,-0.0873681f,-0.2666970f,-0.0290272f, 0.1612380f, 0.1753974f,-0.0914516f, 0.0487788f,-0.2022613f, 0.0864666f,-0.1265114f, 0.0329048f,-0.0027085f, 0.1332923f, 0.1677907f, 0.0798169f,-0.0681336f, 0.0404698f,-0.1001584f, 0.0940831f, 0.0456892f,-0.1250768f },
        { -0.0430280f, 0.0303780f,-0.0186416f,-0.0517509f, 0.0470586f,-0.0684639f,-0.0586169f,-0.0028798f,-0.2635044f,-0.0466693f,-0.0395762f, 0.0359736f, 0.0878732f,-0.0575635f, 0.1778185f, 0.0340525f,-0.0860982f, 0.0735251f,-0.1311609f,-0.1503613f,-0.0730129f,-0.1046369f,-0.0423402f, 0.1506920f, 0.1068773f, 0.0426782f, 0.0665483f, 0.0503000f,-0.1990535f,-0.0726027f, 0.0248837f, 0.1085527f, 0.0860538f, 0.0383391f,-0.2387307f, 0.1398014f, 0.0444391f, 0.0275625f, 0.1077422f, 0.0035885f, 0.0313256f,-0.1964037f, 0.0676510f, 0.0031214f, 0.0282088f, 0.0269259f,-0.1033346f,-0.0385705f,-0.0450444f, 0.0420560f,-0.0923840f,-0.1841992f, 0.0225635f, 0.0499526f,-0.1084286f,-0.0237730f, 0.1214937f, 0.0400122f,-0.0027434f, 0.0715333f, 0.0844583f, 0.0205920f, 0.1001712f, 0.0873422f },
        {  0.0516226f, 0.1015635f,-0.0028555f,-0.0225575f,-0.0235160f,-0.1478191f, 0.0216246f, 0.0725795f,-0.0392132f,-0.0932077f, 0.0203696f, 0.0247612f, 0.0704092f, 0.0129229f, 0.0586960f, 0.1420777f, 0.1065958f,-0.0331008f, 0.0169624f, 0.2599213f, 0.0224940f, 0.1097572f, 0.1759056f,-0.0648785f,-0.0989526f,-0.0179518f, 0.2332322f, 0.1606944f,-0.1504821f, 0.0246583f,-0.0259775f, 0.0192267f,-0.1309228f, 0.0319262f, 0.0215658f, 0.2513397f,-0.0073256f,-0.0494416f, 0.0533167f, 0.0936898f,-0.0045643f,-0.0101566f,-0.0821596f,-0.1086039f, 0.2070738f, 0.1749839f,-0.0234943f,-0.1802198f, 0.2081666f, 0.0852941f, 0.1241642f, 0.0086629f, 0.1029179f, 0.1671400f, 0.0729714f, 0.0145000f, 0.0372709f,-0.0229935f,-0.0364361f, 0.0573149f, 0.1640764f, 0.0582898f,-0.2575897f,-0.0071956f },
        {  0.0652748f,-0.3277755f,-0.0111932f,-0.0285545f, 0.1332761f, 0.1131419f, 0.0146038f,-0.1987345f, 0.0078499f,-0.0468885f,-0.0802614f,-0.0168288f,-0.3337336f,-0.0702994f,-0.2576886f,-0.1198783f,-0.0028756f, 0.1761643f,-0.0927815f,-0.2376070f, 0.0181353f, 0.1267723f,-0.0136346f,-0.2474420f, 0.0770100f,-0.0959524f,-0.2309936f,-0.0574176f, 0.1056401f, 0.0153750f,-0.0706250f,-0.0209352f,-0.0670318f,-0.0422889f, 0.0537905f,-0.2895168f, 0.0597438f,-0.0866977f,-0.1001849f, 0.1118220f,-0.0892143f,-0.0584536f,-0.1073328f,-0.0980375f,-0.3338146f,-0.1618085f,-0.0692721f, 0.0186217f,-0.0697946f, 0.0069292f,-0.1956944f, 0.1257705f,-0.1809526f,-0.1127648f,-0.0384015f, 0.0883635f,-0.0100701f,-0.0829698f,-0.0460316f, 0.1230029f,-0.1837703f,-0.0681463f, 0.2042088f, 0.0291333f },
        { -0.0403561f, 0.1301654f,-0.1236583f, 0.1122651f, 0.0347135f, 0.0036269f,-0.1056783f, 0.0313685f,-0.2425118f,-0.1214376f,-0.1272006f, 0.0457286f,-0.0819646f, 0.0693757f, 0.1528194f, 0.0440513f,-0.0026210f,-0.0244303f,-0.0545786f,-0.0451247f,-0.1829431f,-0.0155032f, 0.1297480f, 0.0142020f,-0.0808772f, 0.0388475f, 0.2357922f, 0.0407959f,-0.2885486f,-0.2171910f, 0.0294298f, 0.0573813f,-0.0546859f, 0.0867874f,-0.1947299f, 0.0907495f,-0.1216058f, 0.0566412f,-0.0878006f, 0.0631026f, 0.1344536f,-0.1832911f,-0.0168709f, 0.0901594f, 0.1028073f,-0.0614973f,-0.1486556f, 0.0131063f, 0.0638483f, 0.1639256f,-0.0002020f,-0.1562383f,-0.1075608f, 0.1098740f,-0.0137996f,-0.1911189f,-0.0402908f,-0.1132255f,-0.1130126f,-0.0796398f, 0.0646358f,-0.0776325f,-0.0545947f, 0.1024531f },
        {  0.0284521f,-0.2207534f,-0.0225565f, 0.0227017f, 0.0957032f, 0.1324727f, 0.0192184f,-0.1091090f, 0.1352529f,-0.0065563f, 0.1102126f,-0.1883145f,-0.0329648f, 0.0725089f,-0.1763361f,-0.0938352f,-0.1317234f, 0.0755165f,-0.0606562f,-0.2940960f, 0.1565512f,-0.0511030f,-0.1073828f,-0.0630091f, 0.0869262f,-0.0913402f,-0.4230390f,-0.0143373f, 0.0587199f, 0.0281949f, 0.0466865f,-0.0040724f,-0.1053388f, 0.0051805f, 0.1599261f,-0.0774142f, 0.0244579f,-0.0522302f,-0.0121984f, 0.0570225f, 0.0407782f,-0.1080543f,-0.0198177f, 0.1095455f,-0.1804937f,-0.1874828f, 0.0810548f, 0.1655098f,-0.0105962f,-0.1039881f,-0.2154819f,-0.1085779f,-0.2117663f,-0.2120879f, 0.0830086f, 0.1723913f, 0.0546971f, 0.0548245f, 0.0927688f, 0.0655623f,-0.0106509f, 0.1299132f, 0.0406938f,-0.1200913f },
        {  0.0512867f, 0.0776637f,-0.0579864f,-0.0934740f, 0.1257394f, 0.0155133f,-0.0940364f, 0.0225952f, 0.2255432f, 0.0835475f, 0.0321300f,-0.0024850f,-0.1730039f, 0.0124237f,-0.0953630f,-0.0579008f, 0.0787340f,-0.0440487f,-0.1565391f,-0.0597442f, 0.0803879f,-0.0684844f, 0.0803036f,-0.0736043f, 0.1005397f,-0.1003424f,-0.1343365f,-0.0184591f, 0.0592737f, 0.0441705f,-0.0152228f,-0.0673995f,-0.1029321f,-0.1147263f, 0.2183551f,-0.0511703f,-0.0672523f, 0.0241067f, 0.0721143f, 0.0351135f, 0.0504542f,-0.0697138f,-0.0820194f,-0.0817843f,-0.1690798f,-0.0934737f,-0.0273136f, 0.1148987f,-0.1246186f, 0.0939756f,-0.0271329f,-0.0355526f, 0.0911743f, 0.0462278f,-0.0857325f,-0.0864985f, 0.0133763f, 0.1199734f, 0.1091013f,-0.0104538f,-0.0239891f, 0.1212684f,-0.0992022f,-0.0982986f },
        {  0.0913509f,-0.1450583f,-0.0625193f, 0.0085455f, 0.1123970f,-0.0572308f, 0.0143471f, 0.0494118f,-0.3098785f, 0.0663055f,-0.0840911f,-0.0464085f,-0.1049207f,-0.0983906f,-0.1089633f,-0.0436217f,-0.0420127f,-0.0887888f, 0.0128872f,-0.0850496f,-0.3996609f, 0.0687426f,-0.0314854f,-0.0613382f,-0.0785118f,-0.0979534f, 0.0302581f, 0.0061957f,-0.2056008f,-0.0170522f,-0.0230292f,-0.1213503f, 0.1005580f,-0.0945240f,-0.2608148f,-0.0339779f,-0.0369829f,-0.0071265f, 0.0718788f,-0.0117467f,-0.0791624f, 0.1264936f, 0.0341652f,-0.0824163f, 0.0544487f, 0.0220675f, 0.0529347f,-0.0610867f, 0.0419587f,-0.0893682f, 0.0436863f,-0.1260590f, 0.0643274f, 0.1080136f, 0.0049962f, 0.0024544f, 0.0112937f, 0.0192340f,-0.0922776f,-0.0803296f, 0.1353814f,-0.1185219f, 0.0005852f,-0.0692691f },
        {  0.0276690f,-0.1923697f,-0.0504404f, 0.0411339f, 0.0420916f, 0.1347571f,-0.0499210f,-0.2278603f, 0.1140601f, 0.0610360f,-0.0535320f,-0.0332038f,-0.2373368f, 0.0026797f,-0.2510924f,-0.0933143f, 0.0136493f, 0.1316334f,-0.1235945f,-0.0620553f, 0.2876372f, 0.1019941f, 0.0139359f,-0.2150553f,-0.0966751f,-0.1667912f,-0.2528075f,-0.1315063f,-0.0343710f, 0.1240605f,-0.0679475f, 0.0879784f, 0.0400087f,-0.0646027f, 0.1973915f,-0.2171078f, 0.1586770f,-0.1227267f, 0.0092851f, 0.0846648f, 0.0416637f, 0.0950949f, 0.0245255f,-0.0874591f,-0.2956305f,-0.0916335f, 0.1120944f, 0.1119968f,-0.2647917f,-0.1339298f,-0.2566350f, 0.0185244f,-0.1208972f,-0.0584077f, 0.0499864f, 0.0457990f, 0.1714871f, 0.1793814f,-0.0713344f, 0.1085589f,-0.1489928f, 0.1201967f, 0.1679255f, 0.0026550f },
        { -0.0260533f, 0.2789274f,-0.0227187f,-0.0771160f,-0.0349584f,-0.0261260f, 0.0510909f, 0.0956345f,-0.2856721f,-0.0970556f,-0.1153562f, 0.1580191f, 0.1167862f, 0.0718020f, 0.3139257f, 0.0988694f, 0.0652053f, 0.0251286f, 0.0833474f, 0.2585651f,-0.3785292f,-0.0776961f, 0.0806479f, 0.0861054f,-0.0336456f,-0.0487680f, 0.1763537f, 0.0370775f,-0.5274701f,-0.0674681f,-0.0451327f,-0.1402808f, 0.0015124f, 0.1000348f,-0.2550639f, 0.0760689f, 0.0305325f, 0.0731663f,-0.1303731f,-0.0735337f, 0.0409143f, 0.0948417f, 0.0856200f, 0.1082046f, 0.1376891f,-0.0041253f, 0.0409431f,-0.1438646f, 0.0048523f,-0.0526920f, 0.0064212f,-0.0100120f,-0.0319129f, 0.1769608f,-0.0439029f, 0.0744110f,-0.0990522f,-0.0747118f,-0.1170247f, 0.0452238f,-0.0086140f, 0.0851617f,-0.0051848f, 0.1362578f },
        {  0.0764736f,-0.5812120f, 0.0111464f,-0.1115332f,-0.0219444f,-0.0649175f, 0.0860847f,-0.1855874f, 0.7115195f,-0.0372952f,-0.0524873f,-0.1354506f,-0.6534984f, 0.0199256f,-0.8448590f,-0.0604299f,-0.0366550f,-0.0472836f,-0.3522131f,-0.6500042f, 0.4544851f, 0.3019526f,-0.4053792f,-0.6849135f,-0.0764951f, 0.0272258f,-0.6709244f, 0.0762131f, 0.9016662f, 0.1342436f,-0.0006507f, 0.1186863f, 0.0858339f, 0.0481391f, 0.4425122f,-0.6582888f, 0.0180889f, 0.0224139f, 0.0019942f, 0.1673326f,-0.1102568f, 0.4350335f,-0.0826720f, 0.0501585f,-0.7292207f,-0.2663314f, 0.1538308f,-0.0334169f,-0.3650760f,-0.0263422f,-0.2929782f,-0.0709529f,-0.1595242f,-0.2747220f, 0.0663081f, 0.1815297f,-0.0065339f, 0.0314385f, 0.0457368f,-0.0425528f,-0.0632424f, 0.1464253f,-0.0031479f,-0.1998081f },
        { -0.1418603f,-0.1304373f,-0.0720991f, 0.0816690f, 0.0630702f, 0.0369225f,-0.0136521f,-0.1076731f,-0.0822543f,-0.0750299f,-0.1154198f, 0.0068067f,-0.0049968f,-0.1091832f,-0.0157323f,-0.0250917f, 0.1606388f, 0.0645624f,-0.0280958f,-0.2227940f,-0.0159244f,-0.0205951f,-0.0674157f,-0.0625480f, 0.0765827f, 0.0843750f,-0.1708461f,-0.0486759f, 0.2205582f, 0.0036166f,-0.0454391f,-0.0363142f, 0.0508904f, 0.1222583f, 0.0568916f, 0.0138775f,-0.0989084f,-0.0169420f,-0.0859920f, 0.0244253f, 0.1259176f,-0.1475198f,-0.0282147f,-0.0902777f,-0.1308980f,-0.0512082f,-0.0738246f, 0.0641580f, 0.0169077f, 0.1301090f,-0.1278544f,-0.0137727f,-0.0406904f,-0.0650827f,-0.0856300f,-0.1213653f,-0.0049644f,-0.1154048f,-0.0119823f,-0.0972688f,-0.0392490f, 0.0366256f, 0.1321497f,-0.1092021f },
